#include "nn_parameters.h"

// NN network parameters -- atribute values
const float weights_in[NUM_NODES][NUM_STATES] = {{7.173452377e-01, -3.490732610e-01, -1.621757746e-01, -9.685060382e-01, 9.555874467e-01, 1.799007207e-01, -8.665042371e-02, 5.263368413e-02, -1.612958610e-01, -3.807519376e-02, -1.331850607e-02, -4.990946352e-01, -3.134793416e-02, 1.387885213e-01, -9.215227328e-03, -1.896365881e-01}, {-2.078758776e-01, -4.935835004e-01, 2.653497756e-01, 9.824569523e-02, 3.086595833e-01, -1.247171983e-01, 2.882699072e-01, -1.499516666e-01, -5.953688025e-01, 2.505598366e-01, -8.606643975e-02, -3.681089580e-01, -3.744876683e-01, -7.543124259e-02, -4.137130678e-01, 9.007731080e-02}, {1.215304248e-03, -2.018264383e-01, 1.041231677e-02, 1.927434355e-01, -1.105492264e-01, -4.653233290e-02, 8.450144529e-02, -4.098807648e-02, 3.961003385e-03, -2.994047105e-01, -2.498290688e-02, -8.556959033e-02, 3.660352230e-01, -1.618126184e-01, -2.259203941e-01, 2.704087198e-01}, {-8.466849327e-01, -9.912322164e-01, 3.746400177e-01, 5.934216976e-01, 4.106619060e-01, -9.946235269e-02, 3.996922821e-02, -5.640257001e-01, -4.256546497e-01, -5.056892708e-02, -9.021995962e-02, -9.046634287e-02, -4.217925295e-02, 3.475805372e-02, 4.870180786e-02, -9.007263929e-03}, {1.169402242e+00, 1.749265790e-01, -1.193135381e+00, -4.154730737e-01, -1.131819710e-01, 1.491078436e-01, -1.650332659e-02, 1.416968107e-01, 7.073942572e-02, -3.344741464e-02, 2.460355498e-02, 1.153193880e-02, 2.346588112e-02, 3.966913372e-02, -4.993501678e-02, -3.973963484e-02}, {-1.430526674e-01, -2.389925569e-01, 8.660884947e-02, 5.041726232e-01, 2.607927918e-01, -1.238547545e-02, -5.277175307e-01, -1.008373424e-01, -1.275638193e-01, -5.021283776e-02, -8.161356300e-02, 4.695110917e-01, 2.458485588e-02, -2.936293744e-02, 9.353819489e-02, -7.258961350e-02}, {-8.933306932e-01, -4.036463052e-02, 2.875442803e-01, 5.308884382e-01, 1.143545881e-01, -9.078421444e-02, -5.110673308e-01, 4.714369476e-01, 1.249708310e-01, -1.189203635e-01, -1.020475626e-01, 1.508055329e-01, -9.854188561e-02, 1.850784719e-01, 9.727948159e-02, -6.044843420e-02}, {-4.449644685e-01, 4.675697982e-01, 2.459482402e-01, 6.300671399e-02, -2.438036650e-01, -1.111695319e-01, 4.361101985e-01, 5.337694883e-01, 8.821929991e-02, -7.074905932e-02, -3.488348052e-02, -6.552221626e-02, -3.978695720e-02, 1.111453306e-02, 1.945427246e-02, -9.228727431e-04}, {-3.932631016e-01, -2.990015149e-01, -1.069136858e+00, 2.574062049e-01, 2.391517609e-01, 3.705707192e-01, 4.442626238e-02, -8.808972687e-02, -2.891915441e-01, 5.670377612e-02, -1.594196633e-02, -1.767296195e-01, -4.737519193e-03, -8.427800983e-02, 1.581450808e-03, 3.213161603e-02}, {-1.925696284e-01, 4.354640245e-01, 2.205211855e-02, 5.207378790e-02, -1.078280434e-01, -1.542055011e-01, 4.816702902e-01, -5.342549458e-02, 5.523137376e-02, -1.107525006e-01, -9.886861593e-02, 1.415413320e-01, -1.550865769e-01, -1.449864241e-03, 1.508047581e-01, 1.879299432e-02}, {4.262155667e-02, -2.914774418e-01, -9.445903450e-02, 1.240211353e-01, 3.001199961e-01, 5.245876685e-02, 5.060811639e-01, 9.951814264e-02, 1.266928017e-01, -9.236578830e-03, 2.638426423e-02, -4.588090777e-01, -2.649706043e-02, 6.679785252e-02, -2.303497307e-02, -7.801042870e-03}, {-1.006853700e+00, 5.412221551e-01, 1.917556487e-02, 9.181630611e-01, -6.421779990e-01, 1.344384700e-01, 1.985331476e-01, -3.006701469e-01, -5.250285193e-02, 1.424806267e-01, -1.224950626e-01, -5.038185716e-01, -4.211342894e-03, -2.506780028e-01, -2.509865724e-02, 1.513568759e-01}, {-1.242382266e-02, -3.380126506e-02, -1.754952073e-01, 2.010152191e-01, -5.620346218e-02, 1.022768952e-02, -2.357093059e-02, -1.353223771e-01, 5.531778559e-02, -1.015381441e-01, -1.608407944e-01, -2.402113527e-01, 3.189603090e-01, -1.258776407e-03, -1.469056010e-01, -2.145424336e-01}, {-1.338168979e+00, 1.944150567e+00, -1.665026993e-01, 4.222320318e-01, -5.288673043e-01, -1.544738002e-02, -4.437406734e-02, -1.053897813e-01, -1.334031671e-02, 1.450225711e-02, -1.344031561e-02, 5.543109495e-03, 6.088285893e-02, -3.153043240e-02, -3.100994416e-02, 3.700206429e-02}, {1.179578453e-01, -2.192471623e-01, -2.789257653e-02, -2.466985434e-01, 3.278806508e-01, 1.685463265e-02, 1.217554286e-01, 1.285988986e-01, 1.273355335e-01, 2.854807079e-01, 4.279415589e-03, 2.869167626e-01, -1.907446533e-01, 2.570886165e-02, 1.324655116e-01, 1.561268121e-01}, {2.317436934e-01, 5.579300523e-01, -2.914095521e-01, -1.128492057e-01, -3.478946984e-01, 1.400755048e-01, -3.266875744e-01, 1.702991873e-01, 6.647035480e-01, -2.862980366e-01, 9.801834077e-02, 4.143519700e-01, 4.189933836e-01, 8.090295643e-02, 4.727968872e-01, -1.037161723e-01}, {-1.153765842e-01, -2.165143006e-02, -3.687519953e-02, -3.017914593e-01, -1.761921495e-01, -2.935124328e-03, 5.682056397e-02, -4.464782402e-02, -7.289510965e-02, -2.463372201e-01, 2.880322635e-01, -1.329050511e-01, -5.315184966e-02, -2.970461249e-01, 1.318586320e-01, 3.875365555e-01}, {1.690821528e+00, 1.613240093e-01, -1.485048831e-01, -8.237527609e-01, -5.128154159e-02, -6.787152588e-02, 1.076949313e-01, -1.494813263e-01, -3.839891031e-02, 2.032111958e-02, -7.931715995e-02, 3.983208910e-02, -2.432272956e-02, -8.515502512e-02, 8.735336363e-03, 1.017657295e-01}, {-1.005451456e-01, -5.378955603e-02, -5.552231073e-01, -3.736918792e-02, 1.523124427e-01, 1.943904608e-01, -1.244985014e-01, -2.497059554e-01, -1.789739281e-01, -2.831712663e-01, -1.256091297e-01, -3.032873757e-02, -3.394909203e-01, 1.412521005e-01, 3.832343817e-01, -1.892834753e-01}, {-4.273295403e-01, 1.118284822e+00, -4.829108119e-01, 2.403715849e-01, -7.894843221e-01, 2.109263092e-01, -1.553754956e-01, 1.194213033e-01, 2.115266323e-01, 1.007157341e-01, 1.971693933e-01, 3.366472721e-01, 2.106902599e-01, -1.790239848e-02, -2.563318312e-01, -4.207242653e-02}, {-1.090519190e+00, 1.357622296e-01, 2.617926300e-01, 5.756582022e-01, -4.468427598e-02, -1.671747714e-01, 1.858294010e-01, -4.319680631e-01, 4.157480597e-01, 6.145890430e-02, -1.484069377e-01, 2.141485661e-01, 9.771597385e-02, -2.267904580e-02, -4.174238071e-02, 5.636070296e-02}, {4.037010968e-01, -8.127047420e-01, -2.019051462e-02, -1.241305545e-01, 3.529683948e-01, -1.591308564e-01, -4.368970394e-01, -6.526758671e-01, -3.214676306e-02, 4.575940222e-02, -7.129785419e-02, 1.851463318e-02, -6.320793647e-03, -4.051572084e-02, 6.322909892e-02, 1.048219204e-01}, {-8.965308964e-02, 4.481215775e-01, 1.121720523e-01, 4.262525141e-01, 9.214785695e-02, -8.928247541e-02, 3.221593499e-01, -3.603610992e-01, 2.291267067e-01, 6.563657522e-02, -1.021339372e-01, -1.751727909e-01, -4.996569082e-02, -2.047714591e-02, 1.416985691e-01, -1.648501754e-01}, {-1.143351197e-01, -7.476614714e-01, -2.059293240e-01, 4.668453634e-01, 6.791087985e-01, 6.570935249e-02, 5.229594111e-01, 4.648820460e-01, 1.858758032e-01, 4.774846882e-02, 2.824611068e-01, -3.761412576e-02, 3.254112899e-01, 9.653172642e-02, -3.881844282e-01, -1.021833196e-01}, {2.801803350e-01, 2.452267706e-01, 3.504362702e-02, 3.487542272e-01, -1.602957249e+00, -2.644506283e-02, -1.124941632e-01, -1.526044607e-01, 1.673735678e-02, 1.220411435e-01, -1.914979368e-01, 1.191358045e-01, -5.512701720e-02, -1.175856031e-02, 3.312140703e-02, -1.084137242e-02}, {-1.412959933e+00, -6.196948886e-01, 5.699992180e-01, 4.715391695e-01, 1.875550151e-01, -1.498436332e-01, 8.902038448e-03, -9.049815685e-02, 2.607701421e-01, 7.377538830e-03, -1.060837060e-01, 4.338737205e-02, -5.407523131e-04, -1.053233258e-02, 1.476241928e-02, 4.046165384e-03}, {-1.653732657e-01, -6.478708982e-01, -1.210539043e-01, 1.166359037e-01, 2.289143205e-01, 5.689750612e-02, -5.445960909e-02, 2.163791507e-01, -4.354912937e-01, 1.334618684e-02, 5.691669136e-02, -1.152771935e-01, 9.855545312e-02, 2.324463576e-01, -1.075734869e-01, -2.490519434e-01}, {-2.923540212e-02, 1.444284618e-01, 7.574991789e-03, 2.090319842e-01, -4.873138964e-01, 8.922043256e-03, -5.114358664e-01, -8.625746518e-02, 1.244899184e-01, -5.033627898e-02, 6.528177857e-02, -6.912044287e-01, -1.668570563e-02, 2.504888736e-02, -3.899474442e-02, 2.380052954e-02}, {-1.400100231e+00, 6.544704735e-02, 5.418278277e-02, 5.043030977e-01, 1.014373749e-01, -1.421645582e-01, 2.253692895e-01, 2.168647945e-01, -1.803394705e-01, 7.843580097e-02, 2.861101180e-02, -1.626988202e-01, 8.970145881e-02, -3.608400002e-02, -5.403039232e-02, 1.092367154e-02}, {-2.301341891e-01, -3.054940403e-01, 8.365338296e-02, -9.687852263e-01, -8.712988496e-01, -9.312082082e-02, 1.545524690e-02, -1.155168712e-01, -2.809254453e-02, -4.379083589e-02, 1.745500602e-02, 1.930773556e-01, 3.236826137e-02, -3.083396936e-03, 2.993329614e-02, -3.048102558e-02}, {-2.218116820e-01, -5.432872474e-02, 3.375118673e-01, 8.364071697e-02, 3.421832919e-01, -1.186687350e-01, 3.849888742e-01, -1.651033759e-01, -4.018228948e-01, -6.117933616e-02, -3.518161550e-02, -2.804950811e-02, -2.758981660e-02, 6.527280062e-02, 3.947202861e-02, -8.309827745e-02}, {2.044934183e-01, -1.128876925e+00, 5.216380581e-02, -1.405836791e-01, 9.322990179e-01, -2.656696551e-02, 3.634890020e-01, 5.520070437e-03, -3.271408081e-01, -2.762985229e-02, -1.135451347e-01, -2.722758567e-03, -7.155515254e-02, -5.330952816e-03, 1.105223224e-01, -3.303081542e-02}, {-1.652220339e-01, 5.328412056e-01, -5.209551454e-01, 3.168457150e-01, -2.223856747e-01, 2.211084068e-01, -1.935708821e-01, 8.731011301e-03, 7.002864033e-02, -2.380100787e-01, 2.269815952e-01, 1.080846339e-01, -3.223779052e-02, 2.979275882e-01, 7.548416406e-02, -3.184144795e-01}, {-2.985837311e-02, -6.556686759e-01, -2.994206548e-01, -4.961260781e-02, 2.084322572e-01, 1.636395901e-01, 3.665400147e-01, -7.644116133e-02, 3.370738402e-02, 2.140762061e-01, -2.630094253e-02, 2.622486651e-02, 2.773298323e-01, -2.742606401e-01, -2.726311684e-01, 2.842116952e-01}, {-2.403254211e-01, 8.363922238e-01, 3.095677122e-02, 3.393056989e-02, -4.243694842e-01, -4.864107817e-02, -3.859423995e-01, 3.932702169e-02, -3.163706064e-01, 7.492329925e-02, 1.761493236e-01, 2.056043744e-01, -1.987419464e-02, -5.968026444e-02, 2.521944046e-02, 5.928074941e-02}, {-4.249950349e-01, -4.661448002e-01, -2.458284944e-01, 1.091256857e+00, 1.056311011e+00, 1.535929143e-01, 2.924866080e-01, -2.453355193e-01, 1.152173057e-01, 9.358803183e-02, -1.261264235e-01, -1.022622269e-02, 2.043838799e-02, -1.553504616e-01, -9.745214134e-02, 6.739810109e-02}, {3.283785284e-01, 5.590009093e-01, 8.125517368e-01, -1.735666767e-02, -1.646896154e-01, -1.455545425e-01, -1.005123779e-01, -5.895941332e-02, -5.297353268e-01, -5.111842602e-02, -6.809758395e-02, -1.734134853e-01, -9.924596548e-02, 3.915526345e-02, 6.181410700e-02, -1.345183980e-02}, {4.287149906e-01, 1.122369245e-01, 2.046193182e-01, -2.375073731e-01, -9.885203093e-02, -1.280966848e-01, 6.187239885e-01, -6.873205900e-01, 5.684957840e-03, 1.197443530e-01, -1.986845769e-02, -3.723706305e-02, 7.323965430e-02, -8.265572041e-02, -6.366549432e-02, 8.454930782e-02}, {1.167210042e-01, 2.690432034e-02, -1.237344295e-01, -3.116748035e-01, -2.799400091e-01, 1.811603829e-02, -5.370811746e-02, 1.200975850e-01, -5.517367274e-02, 4.130590260e-01, -4.276874959e-01, 5.692027044e-03, 3.703373671e-02, 3.610486388e-01, -3.773764521e-02, -3.772934675e-01}, {-6.990548372e-01, 8.685714602e-01, 6.346787214e-01, 1.939348578e-01, -1.357258707e-01, -1.622436047e-01, -1.477035582e-01, -2.238882035e-01, -3.231093287e-01, 1.156466827e-02, -5.390813202e-02, -2.793000080e-03, -1.027518604e-02, -2.500538900e-02, 1.305340417e-02, 4.993630946e-02}, {2.609968781e-01, 4.679243267e-02, 1.255462915e-01, -1.733198911e-01, -2.436568737e-01, -1.005932130e-02, -2.503277361e-01, 1.967794150e-01, -7.958420366e-02, -1.513388101e-02, -2.285647243e-01, 6.084460616e-01, 9.983888268e-02, 2.244613506e-02, -6.020196527e-02, 1.232786383e-02}, {1.618852019e-01, -7.208546996e-01, 8.055572510e-01, -1.317039281e-01, 7.728948444e-02, -1.853154898e-01, -2.627730966e-01, 2.785037505e-04, -1.770967804e-02, 2.077991143e-02, -8.248970844e-03, -2.596522123e-02, 4.675499350e-02, 5.519045889e-02, 3.847125173e-02, 4.154966027e-02}, {-6.384520978e-02, -2.551570833e-01, 1.180978343e-01, -9.318885952e-02, 1.275687367e-01, -2.421104908e-02, 3.810756207e-01, -1.296797842e-01, -3.694041818e-02, 1.898362786e-01, 3.852020949e-02, -4.544600379e-03, 1.787250936e-01, -2.625716329e-01, 2.181768715e-01, 2.391985953e-01}, {6.859791279e-01, 1.484102726e+00, 5.352579989e-03, -1.094913408e-01, -6.224064827e-01, -1.213776395e-01, 3.765904903e-01, -3.534290791e-01, 1.557015926e-01, 3.905297071e-02, -7.991989702e-02, 3.875198960e-02, 3.907984868e-02, -5.110201240e-02, -3.005775809e-02, 9.423995018e-02}, {9.919212461e-01, -1.463028938e-01, -2.101602256e-01, -6.507623196e-01, -4.812531546e-02, 1.512215585e-01, 1.755054146e-01, 4.583221376e-01, -3.466248810e-01, 1.158539951e-02, 1.916790307e-01, -1.641971022e-01, 1.352936029e-01, -5.261063576e-02, -1.067639738e-01, 4.616959393e-02}, {2.843564153e-01, -1.940889508e-01, -6.650559306e-01, -2.339369655e-01, -2.059549689e-01, 1.636339724e-01, 2.386072278e-01, 6.937256455e-02, -1.700506061e-01, 2.560868263e-01, -1.687981188e-02, 1.042091250e-01, 1.981742829e-01, -3.890005648e-01, -2.251812667e-01, 3.930243254e-01}, {1.717590354e-02, -1.056557894e-01, -5.562557578e-01, -1.279979851e-02, -1.416208874e-02, 2.096944600e-01, 1.318647340e-02, -4.595610499e-02, 1.159132645e-02, 5.418919921e-01, 6.017660499e-01, -8.179842681e-02, 4.147717357e-02, 8.941629902e-03, -8.579345793e-02, 1.354940049e-02}, {-1.165956780e-01, 4.347850382e-01, -3.637928963e-01, 8.933889121e-02, -2.523120642e-01, 1.913108379e-01, -2.682970762e-01, -1.487568319e-01, -6.302577853e-01, -2.628479898e-01, -1.187199727e-01, -4.232763052e-01, -9.983912855e-02, 5.720435977e-01, 1.153022796e-01, 5.010458827e-01}, {2.144468576e-01, 2.018405646e-01, -1.613897234e-01, 2.806252837e-01, -4.137697220e-01, 7.463794202e-02, -2.652935125e-02, 2.265421450e-01, -1.473716926e-02, -3.540368378e-01, -3.826801479e-01, -7.261795923e-03, -3.456880897e-02, 1.289170049e-02, 2.991170622e-02, 1.167536899e-02}, {2.301768661e-01, 9.327388406e-01, -1.981450766e-01, -3.673051894e-01, -7.527530193e-01, 1.249471232e-01, 1.087849736e-01, 1.040326804e-01, -5.357000828e-01, 4.470642656e-02, 1.342491619e-02, -3.521864861e-02, 7.607398927e-02, 6.668382324e-03, -4.360653833e-02, 1.446469873e-02}, {5.967069864e-01, 2.381454408e-01, 7.854054123e-02, -1.042261481e+00, 4.621894956e-01, -1.120423749e-01, 1.970308274e-01, 1.530816108e-01, -6.519437581e-02, 4.615947604e-02, -1.270666569e-01, 5.594987869e-01, 1.803308696e-04, -4.440406337e-02, -1.221758407e-02, 7.312022150e-02}, {-1.461929917e+00, 8.996247053e-01, 6.635540724e-02, 4.579770565e-01, -3.789595962e-01, 5.131711811e-02, -1.144453734e-01, 1.934158430e-02, -1.227979884e-01, -8.340914547e-02, -3.495852696e-03, -3.363935277e-02, 5.989903957e-02, 9.398204833e-02, -8.823289722e-02, -9.180501103e-02}, {7.398632169e-01, -8.293319345e-01, -4.440066814e-01, -8.730262518e-01, 9.018141627e-01, 1.839479506e-01, 2.912774086e-01, 3.874529898e-01, 3.281035423e-01, 1.387248375e-02, 1.685042083e-01, 1.693588644e-01, 8.304248750e-02, 9.836032242e-02, -1.256867945e-01, -1.423605680e-01}, {5.567242503e-01, 1.402990669e-01, -1.865465939e-01, -2.471137196e-01, -1.096954793e-01, -7.526670396e-02, -1.724408269e-01, 3.843290508e-01, 2.689836025e-01, -1.463010535e-02, 4.180308878e-01, 3.321850598e-01, 2.213329673e-01, 1.556053758e-01, -1.231563687e-01, 7.209934294e-02}, {-2.363944352e-01, 7.487891912e-01, 2.762233019e-01, -1.975236535e-01, -6.177961454e-02, -1.241889372e-01, 6.478070747e-03, 3.516809344e-01, 8.060617745e-02, -8.578974754e-02, 1.795296520e-01, 2.806921005e-01, 4.376460239e-02, 1.960803270e-01, 7.221668959e-03, -8.681429178e-02}, {5.506575108e-01, 1.547887623e-01, 1.811675727e-01, -3.893655539e-01, 1.928691119e-01, -1.471663117e-01, -2.050759792e-01, 2.456810623e-01, 1.441612989e-01, -2.826806903e-02, -2.978770137e-01, -4.869123399e-01, 3.986984491e-02, 1.794633642e-02, -3.823499009e-02, 1.148118731e-02}, {-9.871348143e-01, 2.722223997e-01, -1.608926617e-02, 4.191994369e-01, -1.872956455e-01, 1.456508413e-03, -2.268941849e-01, -1.248916864e+00, 5.860834941e-02, -1.145384684e-01, -9.549596906e-01, 1.098274067e-01, -2.742679119e-01, -2.534992993e-01, 1.298876256e-01, 8.785481751e-02}, {-1.197673440e+00, 9.526671767e-01, -1.518281549e-01, -4.151984304e-02, -1.942303777e-01, -7.832547277e-02, -4.884990156e-01, -4.812213778e-01, 1.098800264e-02, -7.736501694e-01, -9.675802588e-01, -1.680824906e-02, -1.935923845e-01, 1.244453061e-02, 2.333340794e-01, -2.227759175e-02}, {6.163552403e-01, -5.994674563e-01, 7.770656943e-01, -1.219146103e-01, 2.463077009e-01, -2.510838807e-01, 1.132439822e-01, 1.382529736e-01, -2.894342244e-01, 5.603095889e-02, 5.770127103e-02, -7.637582719e-02, 6.340853870e-02, -1.203371212e-02, -5.414151400e-02, 4.295969009e-02}, {6.920613050e-01, -6.318771243e-01, -2.951632738e-01, -4.361312091e-01, 8.827083558e-02, 1.607839614e-01, -1.293369979e-01, 2.331835628e-01, 2.065701634e-01, -1.372263581e-01, -2.372953594e-01, 2.984250486e-01, -7.669665664e-02, -4.333762079e-02, 8.316945285e-02, 5.268346518e-03}, {1.005884647e+00, -2.789681256e-01, 1.623464935e-02, -4.253888428e-01, 1.876030415e-01, 3.120156704e-03, 2.334484160e-01, 1.269139051e+00, -6.104694307e-02, 1.154597029e-01, 9.720505476e-01, -1.209160537e-01, 2.869919240e-01, 2.568151951e-01, -1.375841945e-01, -8.918138593e-02}, {-1.169680580e-01, 9.986093640e-02, 1.379047148e-02, 1.385934204e-01, 4.355188310e-01, -7.234102115e-03, 4.305400699e-02, -5.097535849e-01, -2.955927327e-02, -1.547607183e-01, 7.139377762e-03, 1.043776274e+00, -6.909434497e-02, 3.986880556e-02, -4.672731459e-02, -4.881704599e-02}, {2.576539814e-01, -1.474215388e-01, 4.231470078e-02, -3.414365649e-01, 2.084188461e-01, -9.798461944e-02, -6.117087603e-01, -3.013083525e-02, 4.754801746e-03, -1.289950777e-02, 1.726063937e-01, 1.452993881e-02, 3.137336671e-02, 4.052455723e-02, -6.435518712e-02, -2.172954679e-01}, {-4.159443974e-01, 8.403812051e-01, 7.517654449e-02, 7.944305539e-01, -1.066141963e+00, -1.407439411e-01, -6.939305365e-02, -3.817810444e-03, -1.971992701e-01, -1.434265524e-01, -1.071040481e-01, -2.518378198e-01, -2.709262818e-02, 1.104906015e-02, 2.539670281e-02, -1.969606243e-02}, {-1.381174773e-01, 8.933363110e-02, -5.149479508e-01, 2.277370542e-01, 1.181976963e-02, 1.719747037e-01, -1.171349809e-01, 3.797477111e-02, -2.538191155e-02, -1.527355909e-01, 3.711434603e-01, -1.479820907e-01, 6.855607778e-02, 4.867902398e-01, -9.142424166e-02, -3.852636516e-01}, {7.170962691e-01, -4.756066576e-02, 4.230335355e-01, -2.775461376e-01, 4.386470467e-02, -2.097921073e-01, -3.670716584e-01, -4.829717875e-01, -4.140719399e-02, -6.468683481e-02, 8.812414110e-02, -3.602354974e-02, -7.537247986e-02, 1.124873161e-01, 5.470049754e-02, -7.286702096e-02}, {-5.215175748e-01, -1.188607931e+00, -6.235497445e-02, 1.881154329e-01, 1.007594705e+00, 7.111231983e-02, 4.826312661e-01, -1.165654138e-01, -2.834466994e-01, -4.673928767e-02, 4.272420425e-03, 4.164590240e-01, -4.430801421e-02, -5.206312984e-02, -3.899838403e-02, 4.375666380e-02}, {-1.078788280e+00, 1.072849855e-01, 1.292726099e-01, 8.309530020e-01, -1.334726438e-02, -5.201871321e-02, -2.358729094e-01, -4.704617858e-01, -1.404085755e-01, 1.817126572e-02, 4.520426318e-02, 1.556511670e-01, 6.385695934e-02, 8.450899273e-03, -1.579380035e-02, -1.977738366e-02}, {1.952552497e-01, 1.445058286e-01, 2.516760491e-02, -1.469935477e-01, -7.528389245e-02, -6.663295906e-03, 2.621876448e-02, -6.684840471e-02, 9.992851615e-01, 1.345372107e-02, -2.630081773e-02, 2.195709795e-01, -1.968515664e-02, 5.578137469e-03, 6.825331599e-03, 3.810502589e-02}, {-4.706034809e-02, -5.056362748e-01, -2.671790719e-01, 1.277590096e-01, 2.780833542e-01, -2.135001123e-02, 3.950661719e-01, 5.718860030e-02, -5.164813250e-03, 2.492177486e-01, 3.333780169e-01, 1.176080108e-01, 2.170579582e-01, -1.786884069e-01, -1.938846111e-01, -1.625317484e-01}, {5.718849897e-01, 1.043599129e+00, 5.530048907e-02, -5.825597644e-01, -9.445338249e-01, -1.055537090e-01, -4.317985475e-01, 2.427915335e-01, -2.045634389e-01, -4.805352911e-02, -1.022361033e-02, -6.393437088e-02, 8.533541113e-03, 1.399171948e-01, -8.512147702e-03, -1.285038888e-01}, {-2.420357019e-01, -3.543386459e-01, 1.203153431e-01, 4.548655748e-01, 1.629076749e-01, -7.766430825e-02, -2.523923814e-01, 5.617807508e-01, -4.204801470e-02, 1.031671092e-01, -3.271329403e-02, 4.993798211e-02, 5.264604464e-03, -1.662926525e-01, -2.690105885e-02, 3.844984248e-02}, {1.060620248e-01, -1.073073268e+00, 3.573296070e-01, -7.258805633e-02, 8.141527176e-01, -2.351044416e-01, 8.651322722e-01, 7.505135238e-02, 2.493847758e-01, 8.863864467e-03, -4.745414481e-02, -4.786602855e-01, 2.100788057e-02, -8.568718284e-02, -5.881170928e-02, 7.737690955e-02}, {1.409199387e-01, 7.340974361e-02, -2.139084637e-01, -6.284101307e-02, -9.992726892e-02, 3.806520253e-02, -4.049241543e-02, 7.047776878e-02, 5.473159552e-01, -6.271591783e-02, 1.925044321e-02, 2.177030742e-01, -1.738977879e-01, 1.296069920e-01, -1.915930510e-01, 3.611489758e-02}, {-7.008922100e-02, -5.452623963e-01, -3.702430129e-01, 2.995278686e-03, 4.332832098e-01, 5.880573019e-02, 1.772924513e-02, -9.358763695e-02, -2.547620051e-02, -5.937894583e-01, -9.609577060e-02, -7.655210793e-02, -4.204319417e-02, 3.645110875e-02, 3.344419226e-02, -4.112167284e-02}, {4.505693167e-02, 5.985469222e-01, 2.702353597e-01, -2.509717457e-02, -1.920271963e-01, -5.418509990e-02, -3.358508348e-01, -6.378486753e-03, 1.147482544e-02, -7.536154240e-02, -1.374002546e-03, 5.276891962e-02, -3.137703538e-01, 2.980258167e-01, 3.204598129e-01, -2.831706703e-01}, {7.921331376e-02, 1.731152236e-01, -6.046033651e-02, -3.042762633e-03, 2.082589082e-02, 1.806363836e-02, 1.143598333e-01, -1.328793019e-01, -1.546318233e-01, -4.808112234e-02, -9.524711408e-03, -2.357400209e-02, -6.584244221e-02, -3.339875340e-01, -2.085911483e-01, 2.915303409e-01}, {-1.445368826e-01, 1.144354105e+00, 3.464163542e-01, 3.103692830e-02, -6.843287945e-01, -1.803443581e-01, -6.006529331e-01, -4.521071911e-02, 3.799292743e-01, 5.649603158e-02, -1.749682799e-02, -7.958809286e-02, -5.231202021e-02, -5.659515969e-03, 8.044406772e-02, 3.191296756e-02}, {-3.985456526e-01, 5.716229081e-01, -7.323135138e-01, 2.527534068e-01, -3.988799751e-01, 3.472949266e-01, -9.462038428e-02, -1.318634450e-01, 3.475008607e-01, -3.546109423e-03, -1.140073463e-01, 1.926562786e-01, -3.640724719e-02, -8.657426387e-02, 1.418506447e-02, 7.132533193e-02}, {-2.381263375e-01, -1.107690558e-01, -3.208054304e-01, 2.272671275e-02, 6.039588526e-02, 8.328979462e-02, 2.100906819e-01, -1.833265722e-01, -1.903258413e-01, 1.867068410e-01, -4.040753245e-01, -1.880581304e-02, -1.253194809e-01, -2.178782672e-01, 1.600365043e-01, 1.014466397e-02}, {-3.651907146e-01, 1.840884984e-01, -4.983367398e-02, -3.961856067e-01, 2.306408584e-01, -1.441062987e-01, -2.407008596e-02, -1.751447022e-01, 1.207597256e-01, 1.029813886e-01, -1.327526383e-02, -6.574286819e-01, 8.172596991e-02, -5.637829378e-02, -2.208966063e-03, 1.326604187e-01}, {-1.642648578e-01, -1.418600082e-01, 3.928888738e-01, -3.354353011e-01, -5.782977119e-02, -2.443847358e-01, -2.363300696e-02, 2.260998040e-01, -3.761330992e-02, 5.304227397e-02, 1.333760098e-02, -7.896011323e-02, 8.248784393e-02, -5.455294251e-02, 3.671146464e-03, 1.480221450e-01}, {5.051100850e-01, 1.382387042e+00, 2.992858887e-01, -7.428888232e-02, -9.894887209e-01, -9.849460423e-02, -1.074783802e+00, 2.626662850e-01, -4.816865548e-02, -8.814558387e-01, 2.969943285e-01, -3.303958103e-02, -2.494261712e-01, -4.310393333e-02, -8.694287390e-02, -1.452413797e-01}, {-3.584810793e-01, 1.374996066e+00, 5.450335145e-01, 1.678998768e-01, -1.356043369e-01, -3.079935908e-01, 5.477662683e-01, 1.027952284e-01, -1.190708857e-02, 4.616854712e-02, -5.386482924e-03, -8.126270026e-02, 9.064499289e-02, 1.138583850e-02, -1.781111211e-02, 8.311733603e-02}, {-5.074567199e-01, -1.390751839e+00, -2.991098762e-01, 7.689506561e-02, 9.924795628e-01, 9.814043343e-02, 1.081800103e+00, -2.664378583e-01, 5.060391128e-02, 8.881119490e-01, -2.954419553e-01, 3.054421395e-02, 2.499557137e-01, 4.471982270e-02, 8.967371285e-02, 1.492072344e-01}, {-1.914300203e+00, -8.531217575e-01, -4.799819291e-01, 6.486973166e-01, 8.433157951e-02, 8.009397984e-02, -3.541549295e-02, -1.530774385e-01, 3.746846318e-02, -2.177900635e-02, -4.178800061e-02, 5.594763905e-02, -5.836430937e-02, -1.202931721e-02, 3.676387668e-02, -1.086442545e-02}, {-7.256910950e-02, 6.234351993e-01, -1.363716871e-01, 5.749276280e-02, -2.858296037e-01, 5.212221667e-02, -6.608651280e-01, -1.431352049e-01, -1.471496522e-01, -3.800376058e-01, -3.014189564e-02, -1.030401364e-01, -5.096997321e-02, 1.355811059e-01, 1.606200784e-01, -1.860484481e-01}, {2.662009001e-01, -8.849464059e-01, 6.252343059e-01, -2.716741711e-02, 2.294258475e-01, -1.551673710e-01, 9.613662958e-02, -5.594510585e-02, 2.332642525e-01, 7.644710597e-03, -3.367215628e-03, 3.618660412e-05, -1.302225702e-02, -3.318150993e-03, 4.813014343e-02, 4.590310156e-03}, {2.614902735e+00, -8.181685805e-01, 4.840729013e-02, -8.437931538e-01, 2.255292237e-01, 1.433017105e-02, 2.495025098e-02, 1.878743172e-01, 5.628089607e-02, 1.789011061e-03, 2.828013152e-02, 5.842256173e-02, -9.705196135e-03, -4.008333012e-02, 1.968609914e-02, 2.606773935e-02}, {3.543555364e-02, -9.495952725e-02, -1.340111196e-01, 1.218129471e-01, -1.823445559e-01, -2.396302968e-01, 3.024922907e-01, 2.426192760e-01, 1.042390168e-01, 1.344871819e-01, 5.138073117e-02, -1.625688523e-01, -2.330229580e-01, -1.886377782e-01, -2.580346763e-01, -1.834050715e-01}, {9.381571412e-02, -1.646685153e-01, -1.566153951e-02, 8.403894305e-02, 4.629821330e-02, 3.814193979e-02, 1.359113306e-01, 1.493254900e-01, 4.416830465e-02, 1.773648262e-01, 1.070304662e-01, -4.494279623e-02, 1.736612618e-01, 1.781660020e-01, -2.333445698e-01, 2.112232447e-01}, {2.818402648e-02, 3.475945294e-01, 8.421493173e-01, -2.106056176e-02, 4.732831940e-02, -1.897181869e-01, -6.030078605e-02, 1.032377630e-01, 3.434018791e-01, -4.437270761e-02, 4.852034897e-02, 1.413648278e-01, 5.452315882e-02, 3.559114784e-02, -6.194010377e-02, -7.989285141e-02}, {6.027439833e-01, 2.521639347e+00, 9.500429034e-02, -1.085631400e-01, -8.156113625e-01, -1.402689237e-02, -5.205756798e-02, 9.707754478e-03, -6.317190826e-02, -2.759557031e-02, 1.410860848e-02, -1.111258380e-02, 2.107823268e-02, -4.111769795e-02, -2.824162133e-02, 6.123569608e-02}, {6.416451931e-01, 6.279140711e-02, 2.702957690e-01, -2.764349580e-01, 1.528867781e-01, -8.841574192e-02, -7.973490655e-02, 2.652378082e-01, 1.723313630e-01, -1.315859556e-01, 1.270574629e-01, -2.737234905e-02, -1.290942878e-01, -1.134564728e-01, 3.199113607e-01, -1.310418174e-02}, {9.299874306e-02, -3.708722591e-01, 3.238577247e-01, -7.235921174e-02, 2.161176950e-01, -1.664329916e-01, 2.280505151e-01, 1.261429638e-01, 5.487213731e-01, 2.247612327e-01, 9.965384007e-02, 3.685087264e-01, 8.477823436e-02, -4.876241982e-01, -9.790732712e-02, -4.317840338e-01}, {6.788021922e-01, 4.070723653e-01, -1.487659290e-02, -9.430840611e-01, -6.920117140e-01, 5.860339105e-02, -3.582317615e-03, 2.214954048e-01, 1.696904004e-01, -8.517915756e-02, 8.230227232e-02, -3.756110966e-01, 5.112713203e-03, 2.360828035e-02, 5.206003040e-02, -5.373958871e-02}, {1.842745900e+00, 1.108106256e+00, -7.543456554e-02, -6.292695403e-01, -2.856580913e-01, 6.163717061e-02, -1.113319397e-02, 4.804467410e-02, 5.392458662e-02, -4.743279517e-02, 2.336225286e-02, 6.662753969e-02, -1.092362311e-02, -1.515856828e-03, 1.815808821e-03, 2.995981486e-04}, {-1.012371659e+00, 5.741055608e-01, -1.215484738e-01, -2.973363735e-02, -4.387567565e-02, -2.502603456e-02, -1.099246964e-01, -2.124437988e-01, 1.078669056e-01, 6.649941951e-02, 6.129097566e-02, 9.292642772e-02, -2.231070101e-01, -3.737188131e-02, 2.531237602e-01, 2.391118743e-02}, {4.134639204e-01, 2.038177699e-01, 4.053328335e-01, -2.489835620e-01, 6.935986131e-02, 8.715395927e-01, -2.512566745e-03, 5.807956681e-02, 1.289120167e-01, 5.077881739e-02, -2.317040972e-02, 7.150118053e-02, 3.395156004e-03, -4.478313774e-02, -4.047529772e-02, -4.187951330e-03}, {-6.519328058e-02, -3.790625185e-02, 6.457895637e-01, 1.532397121e-01, 6.477453560e-02, -1.792695075e-01, -2.844686061e-02, -1.529380097e-03, 1.135406569e-01, 2.028927952e-01, 6.992205232e-02, -1.361870021e-02, 1.942061335e-01, -5.883659469e-04, -1.690491289e-01, 1.064620912e-01}, {-2.479713410e-01, 7.834753394e-02, -1.545985788e-01, 8.831433058e-01, -3.815816641e-01, 1.863206737e-02, -1.007774025e-01, -2.305766195e-01, 4.765229672e-02, 2.284981161e-01, 3.875493705e-01, 1.765143126e-02, -3.160105348e-01, 9.400694631e-03, 1.679709256e-01, 3.036032245e-02}, {-3.154474497e-02, -3.131721914e-01, -1.447976381e-01, 1.529854685e-01, 3.672506213e-01, 2.922776900e-02, -6.903626770e-02, 1.084794402e-01, 5.229661465e-01, -1.188008636e-01, 1.199023053e-01, 1.078090668e-01, -2.982360721e-01, 2.617160082e-01, 1.927497536e-01, -2.255919725e-01}, {-2.448519468e-01, 1.193110943e-01, -9.081232361e-03, 1.258775443e-01, -7.306131721e-02, 1.869112402e-01, -1.476149559e-01, -1.319369078e-01, -1.032439619e-01, -4.997104034e-02, -2.122834027e-01, -5.550946668e-02, 9.342912585e-02, 1.720189452e-01, 2.083188295e-01, 1.077288613e-01}, {8.175778389e-01, 1.760556847e-01, 3.882333338e-01, -1.166330129e-01, -6.827727705e-02, -1.014653966e-01, -3.667075932e-02, 2.419253737e-01, 1.232187375e-01, -1.066963524e-01, 7.277201861e-02, 3.236688301e-02, 1.823321432e-01, 2.359203845e-01, -1.758674085e-01, -2.142760456e-01}, {2.969385386e-01, 3.371965289e-01, 1.264465094e+00, -1.952535957e-01, -2.447094768e-01, -1.630657166e-01, -2.917358465e-02, -4.480743781e-02, 5.880719051e-02, -2.379298024e-02, -1.648845733e-03, 7.134905457e-02, -3.758087382e-02, 2.149377950e-03, 8.822111040e-02, 5.098708346e-02}, {4.132692218e-01, 6.613523960e-01, 4.192990363e-01, -8.965496421e-01, -2.935273945e-01, -2.542118728e-01, 2.514844388e-02, -2.314723432e-01, -6.041878462e-02, -1.624386162e-01, 1.830306500e-01, -8.249624819e-02, 3.276671097e-02, 1.298082024e-01, 5.878147855e-02, -7.818011940e-02}, {-1.025054380e-01, -2.919293046e-01, 1.146346778e-01, 1.285024136e-01, 8.742814660e-01, -2.241658866e-01, -6.178902984e-01, 9.625744820e-02, 7.458944805e-03, 5.494051054e-02, -4.845331982e-02, -8.354426175e-02, -2.674371749e-02, -1.048415806e-02, 1.546964236e-02, 8.273544908e-02}, {6.428545713e-02, -2.055196911e-01, 5.210950226e-02, -3.365349257e-03, -1.931772195e-02, -2.104569599e-02, 4.194849730e-02, -2.964862064e-02, -4.379850626e-01, -4.296214134e-02, -3.093252145e-02, -3.135773540e-01, 5.456044525e-02, -1.531575918e-01, -1.161190122e-01, -1.916906238e-01}, {-4.265973717e-02, 5.457471013e-01, -5.300749093e-02, 9.734859318e-02, -3.417235911e-01, 2.141901106e-02, -3.256050646e-01, 5.961165763e-03, -1.394605190e-01, 2.424236089e-01, -1.446222961e-01, -2.144327313e-01, 1.010884419e-01, 6.891403347e-02, 5.826418102e-02, -8.727728575e-02}, {6.831738353e-02, 1.381130815e-01, -4.408269823e-01, -4.875386059e-01, -2.338372171e-01, 1.074836776e-01, 2.081289701e-02, -2.011734098e-01, -5.883796886e-02, 3.911050037e-02, -3.699609339e-01, -1.879815459e-01, -2.500956357e-01, -3.108370006e-01, 2.254528701e-01, 3.642360866e-01}, {1.233456656e-01, 8.706080727e-03, -9.553695470e-02, 3.045912832e-02, 8.079960942e-02, -7.752224803e-02, -3.924328461e-02, 1.046974286e-01, 4.603122175e-02, -4.619117379e-01, 7.629792094e-01, 8.139397949e-02, 3.524851799e-02, 1.672716811e-02, 1.267779898e-02, -2.277071401e-02}, {-1.279588938e-01, 4.436023906e-02, 4.724575207e-02, 2.001907080e-01, -2.366732061e-01, -6.542091817e-02, 3.587639034e-01, 5.118107796e-01, -3.630835935e-02, 2.618229389e-02, 5.861714482e-02, 3.639173210e-01, 8.748589456e-02, 6.377364509e-03, -1.629289240e-02, -2.564253286e-03}, {-3.908248246e-02, 1.130314320e-01, 8.269647509e-02, -8.358891308e-02, 4.192520678e-02, 2.369908802e-02, -1.930622905e-01, 3.313350081e-01, 2.494936623e-02, -1.464112550e-01, 2.416355908e-02, -4.236731231e-01, -4.517540336e-02, -1.103202626e-01, 1.462759972e-01, -1.679977775e-01}, {-3.512937129e-01, -1.550411344e+00, 1.777628064e-01, 3.703879565e-02, 7.491664886e-01, -8.209808916e-02, 4.586473107e-01, 1.370962411e-01, -2.406468056e-02, 2.575865015e-02, 4.388016462e-02, 1.527493261e-02, 2.171079218e-01, -1.314514279e-01, -2.158110142e-01, 1.477835327e-01}, {6.111935973e-01, 1.792015582e-01, 2.634967566e-01, 1.045156360e+00, 4.392188191e-01, -2.279043347e-01, 9.454154968e-02, -2.086966932e-01, 5.859172344e-02, -7.659094036e-02, -1.328580528e-01, -6.882818788e-02, 4.194030538e-02, -2.992659248e-02, 6.819718331e-02, 9.880338609e-02}, {-4.824030995e-01, -2.828693390e-01, 5.733112693e-01, 1.961968094e-01, 6.949976087e-02, -5.149935931e-02, 4.138866365e-01, -2.671934664e-01, 2.640097030e-02, -1.030861288e-01, 1.587847322e-01, -2.132136822e-01, -1.325299032e-02, -9.273365885e-02, -7.861087099e-03, 4.228360578e-02}, {-2.637591064e-01, 1.617706537e+00, -1.463293843e-02, 1.097547486e-01, -7.713009715e-01, 9.046396613e-02, -1.453894842e-02, -9.272025898e-03, 1.608933657e-01, -4.725197703e-02, -3.030231223e-02, 2.548487112e-02, -1.724479720e-02, 7.221838925e-03, 2.136556059e-02, -2.954205126e-02}, {8.201359510e-01, 5.205144286e-01, 5.217450857e-01, -3.487319052e-01, -3.554317653e-01, -8.334363252e-02, -1.317488998e-01, 3.136437237e-01, 1.285969317e-01, 4.696797580e-02, 3.460759670e-02, -6.196057424e-02, 1.176914722e-01, -8.027511090e-02, -1.389560103e-01, 1.112252697e-01}, {-5.514308214e-01, -1.244617939e+00, 6.363042444e-02, 3.108145893e-01, 8.531443775e-02, -1.101099849e-01, -4.681766033e-01, 2.399326675e-02, 2.941049635e-02, -4.305723682e-02, -3.594832495e-02, -1.578536443e-02, -3.749970347e-02, 6.164424121e-02, 5.988232791e-02, 1.103370450e-02}, {-1.056655962e-02, -1.015873551e-01, -1.745158136e-01, -2.674496174e-01, 3.434363008e-01, 4.043291137e-02, 9.444293380e-02, 9.744349518e-04, -1.939701103e-02, -1.915595084e-01, -4.647051990e-01, 2.356649563e-02, 4.378672317e-02, 1.429487914e-01, -2.592447698e-01, -8.216536790e-02}};

const float bias_in[NUM_NODES] = {-5.379367247e-02, -4.214034975e-01, -3.439927995e-01, -9.692807794e-01, 7.524623871e-01, -7.234353572e-02, -7.808119059e-01, -2.412038594e-01, 9.257572293e-01, -1.517878473e-01, 3.401136026e-02, -9.103779197e-01, -1.360651106e-01, 3.172290027e-01, -8.649834991e-02, 4.756405354e-01, -4.222116470e-01, -1.363341808e+00, -3.330088854e-01, -1.193434596e+00, -3.353502229e-02, -1.264101744e+00, -2.085325122e-01, -4.217176139e-01, -7.814676315e-02, 5.152621865e-02, 8.069552481e-02, -1.557008773e-01, -1.073602080e+00, -8.375537395e-02, -1.839990020e-01, -3.272860944e-01, 3.308731019e-01, 3.519153893e-01, -2.419530302e-01, 1.734056175e-01, -2.380883098e-01, -1.792779565e-01, -5.735396147e-01, 2.890815586e-02, -3.257479519e-02, -3.684989214e-01, 2.303427160e-01, -1.367541313e+00, 5.422787666e-01, -4.191312194e-01, 2.944198549e-01, 5.702462196e-01, 9.460061789e-02, -1.087632924e-01, -1.710114926e-01, 4.467333853e-01, 3.166831434e-01, 3.578842580e-01, -1.977961510e-01, -9.182821214e-02, 3.125305474e-01, 2.676486075e-01, 6.596481800e-02, -7.209993601e-01, -3.211552501e-01, 3.945527598e-02, -4.149088264e-01, 1.490818262e-01, -4.543114603e-01, -4.310554862e-01, 5.523696914e-02, -6.065316200e-01, -1.467304826e-01, 1.733598560e-01, 1.295533329e-01, -3.075915575e-01, -1.555079460e+00, 3.117997348e-01, 1.987397522e-01, -9.533578902e-02, -4.040798545e-01, -8.571526408e-01, 6.950181723e-01, 2.348141074e-01, 1.429019570e-01, 2.985960841e-01, -2.371817380e-01, -1.127533078e+00, 2.380262464e-01, 2.206661254e-01, 1.959222555e-01, 1.498001963e-01, 1.263477951e-01, -2.820529044e-01, -3.853842244e-02, -1.256449223e-01, 1.115107313e-01, -4.028323591e-01, -4.923368394e-01, -1.415419728e-01, 6.142362952e-01, 1.229702234e-01, -4.995942116e-01, -3.346309662e-01, -3.954642713e-01, -3.436599374e-01, -7.387752831e-02, -6.199491024e-02, -4.310700595e-01, -9.303624183e-02, -1.317255944e-02, -6.365071982e-02, 9.173232317e-02, -2.644417882e-01, 9.057834744e-02, 2.050486207e-02, -7.492570579e-02, -5.767450854e-02, -9.903018922e-02, -3.988530040e-01, 4.074098468e-01, -5.032643080e-01, -7.291510105e-01, -1.804395020e-01};

const float weights_out[NUM_CONTROLS][NUM_NODES] = {{-5.922460184e-02, -5.006952956e-02, 3.844063357e-02, 1.492622215e-02, -8.031061850e-03, 1.374395609e+00, -1.100021508e-02, 3.662731871e-02, 2.567184623e-03, 1.318843919e-03, -1.284675207e-02, 5.683381855e-02, -3.248182312e-02, 7.321833074e-02, -3.690338507e-02, -3.236198798e-02, 4.750820994e-02, 6.117644534e-02, -2.373846248e-03, -1.155897975e-03, -2.611632925e-03, 2.744773217e-02, -5.526817590e-02, 2.661006898e-02, 4.668504745e-02, 5.159207154e-03, -3.241688013e-03, 5.157566629e-03, -2.830748446e-02, -4.403382540e-02, -8.115253411e-03, 4.698629677e-02, 7.809930295e-02, 6.983875763e-03, -2.725315047e-03, 5.160331726e-02, 5.129566044e-02, -3.980517387e-02, -1.385330223e-02, 2.105339020e-01, -4.926613066e-03, 6.283167750e-02, 2.049455885e-03, 1.054425910e-02, -3.551683854e-03, -1.962391892e-03, 2.773067541e-02, 2.128338907e-03, 5.823508371e-03, 9.154368192e-03, -4.723598063e-02, -8.798780036e-04, -2.051753551e-02, 4.801511168e-01, 6.672862917e-03, 5.511715077e-03, 1.562766917e-02, -5.098002031e-02, -3.050668864e-03, -7.882817090e-02, -3.145322669e-03, -8.348123170e-03, 2.950318158e-03, -2.375719510e-02, 4.920148291e-03, -4.134915024e-02, -1.426361874e-02, 2.093905583e-03, 3.572835401e-02, -7.021883130e-02, 3.804668784e-02, 6.698436569e-03, -4.552019760e-02, -6.191374268e-03, 7.506478578e-02, -2.407515235e-02, 7.437431253e-03, 9.058998898e-03, 5.011607334e-02, -3.548169881e-02, 2.682683989e-02, 6.215733476e-03, -2.753482461e-01, -1.051337495e-01, 5.845685955e-03, -1.044054329e-02, -1.005151030e-02, 1.603238583e-01, 2.620058367e-03, -5.720939953e-03, 2.932826430e-02, 5.091926455e-02, -1.816037111e-02, -6.452932209e-02, 4.011170007e-03, 2.995994873e-03, -1.958357915e-02, -9.655949473e-02, -1.021322981e-01, 1.377120614e-03, -6.463592499e-02, 2.494394965e-02, -2.104913592e-01, 8.597005904e-02, 1.388404332e-02, -1.722738263e-03, 2.187365899e-03, 1.073616743e-01, -5.071019754e-02, 3.301534802e-02, 2.525481163e-03, 2.713665832e-03, 5.764955655e-03, 2.943033911e-02, 1.058444940e-02, -3.719880432e-02, -2.093906999e-01, -2.653939426e-01, -5.106566846e-02, -2.199050039e-02}, {-3.380010836e-03, -2.004106529e-03, 2.027775161e-02, 1.382232294e-03, -2.743660286e-02, -2.113903314e-02, -6.736798584e-02, 1.661562361e-02, 5.933618918e-02, -1.019556522e-01, 6.008852273e-02, 1.464607194e-02, -3.852970898e-02, 2.534864005e-03, 1.567106880e-02, 3.486680239e-02, -9.064135142e-03, 4.952479620e-03, 5.546025466e-03, -3.124220856e-02, 5.941708572e-03, 9.304534644e-03, -2.911267243e-02, -2.441281825e-02, 5.503198132e-03, -4.574042186e-02, -1.164602861e-02, -3.644241691e-01, -1.079015713e-02, -2.890519798e-03, 3.300430253e-02, 4.312356934e-03, -6.677591801e-02, 4.307124019e-02, 5.304788426e-02, -2.275713533e-02, -8.522992581e-02, 6.119356677e-02, 1.369123440e-02, -5.403175950e-03, 1.427680813e-02, 1.140935905e-02, 6.656489521e-02, 3.218296915e-02, 5.240317583e-01, 5.620974675e-02, -2.503703833e-01, -9.127585590e-02, -9.663389996e-03, -5.638422072e-02, -2.529578097e-02, 4.929379374e-02, 2.978164330e-02, 1.895277412e-03, -1.291025057e-02, -3.587204264e-03, 1.063488498e-01, -5.416460335e-03, 5.149522051e-02, -1.079163421e-02, 1.831725240e-02, -3.617021069e-02, 1.410344522e-02, 3.453215351e-03, 4.173001274e-02, 1.460803580e-02, -5.935664289e-03, 3.750343248e-02, -9.906762280e-03, -7.029552013e-02, 6.468262989e-03, 5.320246518e-02, 1.668522693e-02, -6.526385993e-02, 6.968065351e-02, 1.921362616e-02, -4.527687654e-02, -2.897405624e-02, 2.117522247e-02, 5.065075587e-03, -7.248807549e-01, -7.926831394e-02, 5.312263034e-03, -5.480545107e-03, -5.004678294e-02, 1.051148027e-02, -5.065662414e-02, -2.095971256e-03, -4.899493419e-03, 1.054855883e-01, -2.321845852e-02, -5.829595029e-03, 6.934500486e-02, 4.621138796e-02, 4.432669654e-02, 1.741279662e-01, -4.610893666e-04, 6.444174796e-02, 5.530141294e-02, 5.070953630e-04, -9.081398696e-02, 6.077880785e-02, -1.630203985e-02, -5.289133638e-03, 2.462676726e-03, -1.165071875e-02, -7.108126581e-02, 5.608068779e-02, 1.647640020e-03, -6.237774156e-03, 3.284336999e-02, -2.724177241e-01, 2.174725235e-01, 6.782643497e-02, -1.219875365e-02, -1.132206526e-03, 3.359949682e-03, 3.354368731e-03, -2.151363902e-02, 6.754076108e-03}, {7.042109221e-02, 3.693723679e-02, -4.283098504e-02, -3.257064894e-02, 1.401533489e-03, -6.972733140e-02, 7.716700900e-03, 4.454895854e-02, 3.626533726e-04, 8.735719137e-03, -6.812388450e-02, -3.421317413e-02, 7.256547455e-03, 9.429948404e-03, -2.112718858e-02, -4.164365679e-02, 6.448909640e-02, -4.352648556e-02, -1.319789328e-03, 2.435891330e-02, 1.336995978e-03, 7.560500503e-02, -5.862095580e-02, -2.214629799e-01, 6.814701855e-02, 4.169465974e-03, -1.614129394e-01, -1.214343682e-02, -6.355226040e-02, 7.508485019e-02, 2.231991617e-03, -2.579699643e-02, -8.039304614e-02, 7.857375778e-03, -7.041975914e-05, -6.468052976e-03, 8.980816230e-03, -7.680319250e-02, -1.107627433e-02, -6.906884164e-02, -5.953098182e-03, -6.160845980e-02, 3.612853121e-03, -2.956376411e-02, 2.293322701e-03, -1.435739920e-02, -2.754496410e-02, -9.697319008e-03, -1.471352298e-02, 1.575565524e-02, -3.556205193e-03, 3.110995051e-03, 2.163074538e-02, -1.957893744e-02, -2.978474833e-02, 8.841906488e-02, -9.015464224e-03, 2.104787529e-02, 3.569379076e-02, -1.703210175e-02, -2.737437747e-02, -8.326433599e-03, 9.939537942e-02, -4.680318385e-02, 1.097367518e-02, -1.849000156e-02, 1.377647836e-02, 1.889338717e-02, -2.808523551e-02, 4.901501536e-02, -3.381985426e-02, 9.445076576e-04, 3.372422606e-02, 4.808416590e-02, -5.029349402e-02, 5.331994593e-02, -1.812424511e-02, 2.501045540e-02, 4.913399369e-02, -3.333922848e-02, -1.150920521e-02, -7.203465328e-03, 3.342622519e-02, 1.035426091e-02, 3.069921583e-02, 3.373289248e-03, -7.648333907e-03, 3.531854600e-03, 1.690292507e-01, -5.905893631e-03, 2.967378497e-02, 1.650062576e-02, 1.187549345e-02, -2.248925157e-02, -7.352695335e-03, -3.474983154e-03, 5.602633953e-01, 7.659762353e-02, -9.825275093e-02, 3.459218889e-03, 3.669603541e-02, 2.475293912e-02, 2.342736274e-01, 1.619706675e-02, -1.953009367e-01, 6.813911023e-04, -1.022301614e-03, 1.030348316e-01, -5.620112270e-02, -4.998499155e-01, -3.003465384e-02, -8.378668688e-03, -8.450186811e-03, -2.194324136e-02, 9.531049430e-02, -2.957810462e-02, 3.208683338e-03, 1.237886399e-02, -1.814019680e-02, 8.344527334e-02}, {8.239439689e-03, 8.397955447e-03, -3.008818626e-02, 2.318295836e-02, 7.308081537e-02, 6.370913703e-03, 2.985071205e-02, 3.400041535e-02, -7.195580006e-02, -9.174644202e-02, -4.921757057e-02, 7.942857337e-04, 1.636050455e-02, -4.115777847e-05, 2.885709889e-02, 2.253238857e-02, 3.833054798e-03, 1.159447804e-02, -1.973081231e-01, -1.707237773e-02, 1.511670649e-01, 3.954881802e-03, -2.672411874e-02, 1.137780491e-02, -1.010634471e-02, -4.036850855e-02, 1.794437645e-03, 7.510810345e-02, -2.687696135e-03, 1.196842548e-02, 6.248015165e-02, -4.842238501e-02, 6.464987248e-02, -3.563311324e-02, 2.511453256e-02, -1.951305196e-02, -2.022803389e-02, 2.415759116e-02, 6.458281726e-02, 6.038358435e-03, 4.834691808e-02, -1.719019003e-02, 8.235377818e-02, -2.166498266e-02, -1.169647742e-02, -1.364636514e-02, 2.236140519e-01, -2.982968651e-02, -7.764430717e-03, -4.657400027e-02, 1.777244732e-02, 7.281547878e-03, -3.036610968e-02, -8.550250786e-04, 4.087065160e-02, -1.066561963e-04, 6.932822522e-03, -3.499991726e-03, -1.189366821e-02, 5.433863401e-02, -4.193226248e-02, 1.481614728e-02, 8.980869502e-02, 7.983857766e-03, 2.058374323e-02, 8.640706539e-03, -9.696381539e-02, -4.038697481e-02, 1.219765749e-02, 8.970550448e-02, -7.796444464e-03, 3.478284553e-02, -1.967994869e-02, -3.033324890e-02, -9.274227917e-02, -8.201372810e-03, -2.729216032e-02, -1.620308124e-02, 1.344727445e-02, -1.368448697e-02, 1.605141908e-02, 3.250751793e-01, -1.427937858e-02, -1.412552549e-03, 4.069408402e-02, -1.369931549e-01, -5.198319256e-02, -4.538975190e-03, 1.338425674e-03, -5.992182923e-05, -1.766164228e-02, 2.466425532e-03, -9.548338056e-01, 9.376686998e-03, -2.511099353e-02, 4.637805745e-03, -1.734186197e-03, -7.236976922e-02, 5.551319569e-02, 6.166440994e-02, 7.689768821e-02, 5.591090024e-02, -1.172728953e-03, 1.039225259e-03, -6.661021709e-02, 3.429665565e-01, 8.270940930e-02, 5.280329287e-02, -8.852903731e-03, 6.194238085e-03, -1.941422932e-02, 1.689561270e-02, -2.595278919e-01, -8.982657641e-02, -3.594804183e-02, -1.860890724e-02, -8.857771754e-03, -1.266297884e-02, -2.274194919e-02, -1.937379986e-01}};

const float bias_out[NUM_CONTROLS] = {1.269897819e-01, 1.506045461e-01, 9.197638929e-02, -5.248394981e-02};

const float in_norm_mean[NUM_STATES] = {-3.952501807e-03, 1.866176724e-02, -6.320778728e-01, -1.140999887e-02, 2.113098092e-02, -1.377113611e-01, 9.271415765e-04, -1.493570744e-04, -1.842535217e-03, -4.770771135e-03, -5.653166678e-03, 1.622058335e-04, 7.723726562e+03, 7.720702148e+03, 7.716581543e+03, 7.720924316e+03};

const float in_norm_std[NUM_STATES] = {1.569601655e+00, 1.645529866e+00, 1.033831000e+00, 1.520770788e+00, 1.643396378e+00, 6.120423079e-01, 3.031066954e-01, 2.858859599e-01, 1.027492642e+00, 1.469342113e+00, 1.330333591e+00, 1.131611586e+00, 7.145852051e+02, 7.219612427e+02, 7.155230713e+02, 7.213043823e+02};

const float out_scale_min = 5.000000000e+03;

const float out_scale_max = 1.000000000e+04;

const float weights_hid[NUM_HIDDEN_LAYERS-1][NUM_NODES][NUM_NODES] = {{{-2.371489406e-01, 9.726426005e-02, 1.141194329e-01, -5.564520359e-01, -3.794476092e-01, 3.638729081e-02, -5.679599568e-02, -1.145447493e-01, -6.445614100e-01, 5.262663364e-01, -7.686349154e-01, 3.107529581e-01, -7.391132712e-01, -1.074792624e+00, 2.632671297e-01, -3.236252964e-01, 6.358663440e-01, 3.543188572e-01, -2.836062014e-01, 1.874464512e+00, -1.249019384e+00, 9.303212166e-01, -1.239456087e-01, 9.746383429e-01, -4.005532265e-01, 2.026956528e-01, 5.304547548e-01, -3.911440074e-01, 5.928032398e-01, -9.922478795e-01, 3.095217049e-01, -3.196518719e-01, 8.176407814e-01, -2.357514352e-01, -2.344885916e-01, -3.262650073e-01, 5.887118578e-01, 1.140195251e+00, 3.649754226e-01, 1.139059544e+00, -3.585256338e-01, -9.546354413e-01, 3.317406178e-01, -2.857263088e-01, -1.985449493e-01, -2.647385597e-01, -2.656663060e-01, 1.709563434e-01, 1.226645242e-02, -1.373373568e-01, 1.254899144e+00, 1.804191619e-01, 9.258370101e-02, -5.631873608e-01, -2.257593535e-02, -1.281717777e+00, -1.320992783e-02, 2.359253019e-01, 7.390721440e-01, -1.386760622e-01, 5.317770690e-02, -8.943095803e-01, -1.102916718e+00, 1.101191789e-01, -4.571992159e-01, -6.750226021e-02, 1.516558975e-01, -8.913028836e-01, 4.847266674e-01, 7.813369632e-01, -3.721529245e-01, -5.963768363e-01, 1.521998458e-02, -4.724734426e-01, -1.785132587e-01, 3.118261695e-01, 5.478346348e-01, -1.948527813e+00, -3.186501741e+00, 1.837279052e-01, -5.058712512e-02, -2.365521388e-03, -5.763022900e-01, 2.124993056e-01, 3.978584707e-01, -3.103523850e-01, 5.838559270e-01, 9.346848726e-02, -1.189290062e-01, -4.464135170e-01, 9.885207564e-02, 5.645402074e-01, -6.979150176e-01, -6.977481246e-01, 2.244283855e-01, -1.068236470e+00, -4.675694704e-01, 1.003351659e-01, -4.313965142e-01, 7.791422307e-02, -1.180973426e-01, 1.062566563e-01, -1.011205673e+00, 6.982567906e-01, -4.468294978e-02, 1.650144011e-01, -2.234272510e-01, -3.301765621e-01, 1.466685683e-01, -2.627161120e-05, -7.346436381e-02, 1.841219813e-01, -3.545190394e-01, -7.749358416e-01, 9.919515252e-01, 9.564956650e-03, -9.758075476e-01, 9.978920221e-02, 9.939219952e-01, -4.501430690e-02}, {-3.776229620e-01, -4.913194105e-02, -3.452474251e-02, 2.629113197e-01, 7.616410255e-01, 1.957838684e-01, 2.759960294e-01, -2.517475188e-01, 4.780246615e-01, -5.797321796e-01, -1.463825256e-01, -7.943214774e-01, 1.396454871e-01, 2.826355100e-01, 1.988627017e-01, -7.875715941e-02, 6.155400872e-01, -2.050892353e+00, -2.224888355e-01, -2.622509599e-01, 6.891711056e-02, -4.347605407e-01, -4.824131355e-02, -5.499745607e-01, -1.984360814e-01, -1.309514940e-01, 7.262473553e-02, -3.750808835e-01, -4.628605545e-01, -1.179132819e+00, -4.411981404e-01, 8.186972141e-02, -8.439617753e-01, 1.044266969e-01, 7.479590923e-02, 2.404495180e-01, -3.241723478e-01, -1.986080855e-01, -2.450075448e-01, -4.648078978e-01, 3.779736459e-01, 7.853502631e-01, 5.517458543e-03, 5.438419990e-03, 2.884271741e-01, -4.712323546e-01, 1.768318266e-01, -1.566612870e-01, 7.084638476e-01, -1.416171491e-01, -2.344340384e-01, 4.499900639e-01, 2.549640238e-01, -5.834735632e-01, 1.929591596e-01, -6.195176393e-02, 5.903516412e-01, 8.863320947e-02, -1.504136324e-01, -5.923331976e-01, -3.875440955e-01, -2.639659047e-01, 6.955008488e-03, -1.310238689e-01, -5.850656629e-01, -1.782263070e-01, -4.767820537e-01, -6.198222041e-01, 4.347595870e-01, -2.206718028e-01, 5.656701326e-01, 4.346221983e-01, -1.954106428e-02, 1.912905723e-01, 6.216348410e-01, 3.218971193e-01, 1.701392382e-01, -1.437797099e-01, 5.959308520e-02, -2.612892091e-01, -4.385610223e-01, 1.622650623e-01, -8.352844119e-01, 1.333134919e-01, 7.815048099e-01, 4.268895984e-01, -1.476542801e-01, -1.526362002e-01, 3.215619028e-01, 1.512711197e-01, 5.300076306e-02, 1.025156602e-01, -2.460952401e-01, -2.703657374e-02, 8.614679798e-03, -4.333603084e-01, 1.166316047e-01, 2.270621806e-02, -1.272905469e+00, -4.585095644e-01, -2.662575245e-01, -1.389231831e-01, 8.439070731e-02, -3.368974328e-01, -1.244729757e+00, -1.164525986e+00, -3.850288689e-01, -1.447943449e-01, 3.848943412e-01, -3.183656335e-01, 3.451462984e-01, -7.182868570e-02, -5.760340020e-02, -6.023245454e-01, -2.391496748e-01, 3.958628327e-02, -3.659592941e-02, -1.373302490e-01, -8.369018137e-02, 4.572277516e-02}, {-7.445532680e-01, -3.689809144e-01, -2.681782842e-01, -4.779795647e+00, -9.974930286e-01, -7.341244817e-01, 5.547919869e-01, -3.279147446e-01, 3.645374179e-01, 5.099339485e-01, 1.842234470e-02, -3.653236479e-02, -3.307186067e-01, 1.530095786e-01, -2.776437625e-02, 1.538161072e-03, -4.291984141e-01, 5.951853395e-01, 5.169216916e-02, 6.665291637e-02, 2.025603056e-01, 5.694549084e-01, 9.259378538e-03, -3.168639839e-01, -3.459528089e-01, -6.951845884e-01, -5.499438643e-01, 1.078805700e-02, -2.213260680e-01, 3.116247803e-02, 6.950963736e-01, -9.052138329e-01, -2.208632529e-01, -5.259179473e-01, 8.045328259e-01, -5.118534565e-01, -5.453875065e-01, 8.304947615e-02, -3.904639930e-02, -9.491959810e-01, 3.741900623e-01, 5.722388625e-01, 1.248439789e+00, -7.348759174e-01, 2.481236160e-01, -1.365675926e-01, -7.340230942e-01, 2.106720209e-01, 9.939673543e-01, -1.463383675e+00, -5.208861828e-01, -1.271610558e-01, -5.505811572e-01, -2.269194126e-01, -1.569310874e-01, -1.244802549e-01, -6.386853456e-01, 4.186338484e-01, -7.990719080e-01, -2.505907297e+00, 9.071274400e-01, -1.549880356e-01, 7.695218921e-01, 3.929403722e-01, 4.551896453e-01, 9.310147762e-01, -3.752524853e-01, -4.663073123e-01, 2.567395270e-01, -9.725505859e-02, 2.476388961e-01, -3.999706805e-01, -1.117007136e-01, 2.107260227e-01, 2.061002254e-01, 2.525030971e-01, 7.371826768e-01, 5.815582275e-01, -2.672329247e-01, 5.390336514e-01, -3.369300067e-01, 4.719251394e-01, -1.184253469e-01, -1.549771726e-01, 4.299326241e-01, -1.312462687e+00, 8.142021894e-01, -3.971217573e-01, -5.342226624e-01, 6.831041574e-01, 3.751983047e-01, 2.996433973e-01, -1.084309936e+00, -5.604857802e-01, 2.378545105e-01, -3.767246306e-01, 3.662670255e-01, 4.406576753e-01, -4.952403009e-01, 4.362852871e-01, -5.310925841e-01, -8.067249656e-01, -8.298544884e-01, -8.300825208e-02, -1.298120618e-01, 1.184821352e-01, -6.662482768e-02, -2.622034252e-01, 4.236334264e-01, -3.507761359e-01, 6.883050799e-01, -9.387790412e-02, 6.727369130e-02, 2.499812990e-01, -1.657067984e-01, -1.124186873e+00, 5.523200631e-01, 6.787753701e-01, -4.610168636e-01, 3.864557147e-01}, {6.555370688e-01, 3.029788786e-04, -2.121132910e-01, -2.544030249e-01, -2.312238663e-01, -3.336647511e+00, -4.203271568e-01, -8.792393804e-01, 7.724814117e-02, 4.051375687e-01, 1.722982377e-01, -1.577462912e+00, -1.233992577e+00, -1.461872458e-01, -1.617911905e-01, 1.626802087e-01, -9.102770090e-01, -1.053491607e-01, 3.981066048e-01, 1.108591724e-02, -9.832712263e-02, -4.818319976e-01, -1.318985462e+00, -1.003174186e+00, 3.376021087e-01, 4.143612385e-01, -2.174826711e-01, -1.341559291e-01, -8.038828373e-01, -4.096883774e+00, -1.450668573e-01, -2.420814037e+00, 4.178530574e-01, -2.640076280e-01, 3.176360726e-01, -4.471643567e-01, 1.416746294e-03, -1.409025073e+00, 1.499651670e-01, 6.442606449e-02, -1.555351257e+00, 1.565711200e-01, 2.578196824e-01, -3.488488197e-01, 3.841866553e-01, 6.614739299e-01, -8.943159580e-01, -1.134636164e+00, 3.674644604e-02, -1.613847733e+00, -1.853559852e+00, 4.584693015e-01, -1.004796177e-01, -1.699314475e+00, -1.557866573e+00, -8.622645736e-01, 1.186136752e-01, 1.823742092e-01, 4.359821677e-01, -4.399750233e+00, -4.428854585e-01, -2.860105515e+00, -2.385158777e+00, -2.137421519e-01, -1.764681637e-01, -2.622795820e+00, -2.399561644e+00, -1.566730022e+00, 1.313144248e-02, -2.556167245e-01, -4.192501307e-01, -4.084315777e+00, -1.982360959e+00, -1.134163618e+00, -1.181544781e+00, -4.635189772e-01, 1.026202202e+00, -2.032799482e+00, 7.331809402e-02, -2.957098782e-01, 3.402933478e-01, 3.906447291e-01, 2.676564455e-01, -2.612696588e-01, -1.256047726e+00, -6.415768266e-01, 1.512975246e-01, 4.275172949e-01, 1.089482680e-01, -9.063372612e-01, 4.644445702e-02, 5.558202863e-01, -1.148449183e-01, -1.269360662e+00, 8.225316405e-01, -1.186498404e+00, 4.934683740e-01, -2.454989702e-01, -2.298807621e+00, 1.217283458e-01, -4.874017835e-01, -7.458590269e-01, -7.558533549e-02, -4.814204574e-02, 3.442357183e-01, 3.609145284e-01, -2.822408676e-01, 3.549548686e-01, 6.009596586e-02, 4.092578590e-01, -2.195674896e+00, -7.250170708e-01, 2.387330309e-02, -7.418713570e-01, -1.859274387e+00, 6.982272267e-01, 4.021107852e-01, 5.200046897e-01, -2.349500209e-01, 3.072550893e-01}, {-8.430869877e-02, -6.386823207e-02, -1.057053655e-01, -7.532604039e-02, 1.340601742e-01, 1.134663224e-01, 3.630621731e-01, 2.570826411e-01, 2.147209495e-01, -1.100678518e-01, 1.811986585e-04, 1.300628949e-02, 2.280131876e-01, 6.025538966e-02, 5.118983388e-01, 2.728096843e-01, -3.794922680e-02, -2.240568846e-01, -2.207195759e-01, -1.803919226e-01, -4.452281445e-02, -1.803600416e-02, 3.340914845e-01, -2.313514650e-01, 2.000009567e-01, 1.344705224e-01, 5.722791329e-02, 6.595681608e-02, 6.811763346e-02, 3.702687323e-01, -3.551885951e-03, -1.069277972e-01, 1.672920026e-02, -4.635520577e-01, 5.017943978e-01, -1.156825051e-01, -4.937794805e-02, 3.096345067e-01, -3.504513204e-02, -4.173250198e-01, 1.840633452e-01, 1.389693320e-01, 1.873386353e-01, -2.000009865e-01, -4.906768352e-02, 1.405020207e-01, -3.652021289e-02, -5.794115663e-01, 2.794716321e-02, 3.240331134e-04, 5.459856242e-02, -1.016603336e-01, -9.944577469e-04, -3.196433783e-01, 3.321843445e-01, -2.100095339e-02, 1.091258228e-01, -7.149564475e-02, -2.083851993e-01, -2.366533130e-01, -1.388839036e-01, 5.546437576e-02, 4.214029014e-02, -8.884904534e-02, -1.862907857e-01, 2.802995145e-01, 1.969787627e-01, -3.484624028e-01, -1.747467965e-01, 2.784270644e-01, -1.622546464e-01, 1.570590585e-01, -2.064178288e-01, -9.211020079e-04, 2.867012322e-01, 7.083611190e-02, 8.189265430e-02, -2.808788717e-01, -6.341125071e-02, 3.221627772e-01, 2.398291379e-01, -1.972398162e-01, 2.841275334e-01, 1.232062802e-01, -1.634230465e-01, 5.064160796e-04, -1.185496077e-01, 2.595239282e-01, 1.969379932e-01, 3.831724823e-01, 1.328792453e+00, 3.468317986e-01, 1.489119232e-01, -2.815966308e-01, 2.252146959e+00, -2.380817980e-01, -1.274402067e-02, -2.748669684e-02, 3.597877324e-01, -4.545298591e-02, 1.258505508e-02, -1.386127025e-01, 2.779585421e-01, -3.275423348e-01, -1.561542451e-01, 9.388627112e-02, 1.045654491e-01, 4.500468075e-01, 1.270312518e-01, -2.205814719e-01, 9.921297431e-02, 1.227786914e-01, 1.996099800e-01, -2.457002252e-01, 4.793408513e-02, 1.651013792e-01, -1.916262805e-01, 2.277199365e-02, -7.861105353e-02, 2.333660573e-01}, {-6.618593931e-01, 1.462981254e-01, 2.978130281e-01, -4.137979746e-01, 2.963663340e-01, -6.066837534e-02, -2.385543585e-01, -1.396969855e-01, -3.845162094e-01, -7.599769831e-01, -2.606318295e-01, 1.132491678e-01, 1.889417470e-01, 3.570710719e-01, -1.245565712e-01, -9.214069694e-02, 2.986385524e-01, 1.088591516e-01, -8.524376154e-01, -3.830388784e-01, -5.351135135e-01, 3.986693919e-01, 9.698981792e-02, -1.093782950e-02, -7.139234245e-02, -3.216005862e-01, 8.713167906e-02, 4.553554058e-01, -7.600903511e-01, -3.272284865e-01, 1.438929886e-01, -3.401277959e-02, 3.481215835e-01, 7.854498029e-01, -1.117526293e-01, -3.137245178e-01, 1.267041713e-01, -1.078779902e-02, 5.745179057e-01, 4.983135760e-01, 3.425807357e-01, -4.221164435e-02, 1.386013180e-01, 3.770259768e-02, 1.839511096e-02, 1.535134614e-01, 3.387302160e-01, 1.180658117e-02, -1.761344261e-02, 3.679417670e-01, -4.662088454e-01, 4.864267111e-01, -5.326142907e-01, -5.417707562e-01, -5.100731552e-02, 2.182447165e-01, 1.015923470e-01, -1.261024326e-01, 3.866621554e-01, 1.147521585e-01, 7.238157094e-02, 2.228259444e-01, -2.619376481e-01, -1.856651753e-01, -2.446146160e-01, 3.740498424e-02, -3.251859546e-01, -6.713185906e-01, 2.645108998e-01, 4.180567265e-01, -7.166657597e-02, -1.197785437e-01, 5.278615952e-01, -1.586183459e-01, 3.697041422e-02, -3.362563252e-01, -1.966992170e-01, -3.655571938e-01, 8.336563110e-01, -5.873367935e-02, 5.873523355e-01, 7.361694425e-02, 2.127333432e-01, -4.853829741e-01, -2.877994478e-01, 4.723712429e-02, 6.068765521e-01, -1.990363717e+00, -2.991015613e-01, 2.153469622e-01, 7.189365625e-01, 3.066148460e-01, 1.174797714e-01, -8.033609390e-02, 6.397394836e-02, 1.277998462e-02, -2.407592982e-01, -2.128391117e-01, -1.169141531e-01, -6.835882068e-01, 2.317421436e-01, -4.828623831e-01, 1.900734901e-01, 2.460778654e-01, -1.662693620e-01, -1.011478901e-01, 1.682580262e-02, -4.276429713e-01, 6.880608797e-01, -3.534804583e-01, 1.729863882e-01, 1.716772020e-01, -1.586173475e-01, 1.033302397e-01, 1.170061156e-01, -2.137699425e-01, -2.700273991e-01, -6.702744216e-02, 1.460723430e-01, 3.785172701e-01}, {-2.267930359e-01, 8.458951861e-02, 1.198291302e+00, -2.524609119e-02, 3.253555894e-01, -1.237716824e-01, 1.396832317e-01, 1.043916196e-01, -3.177365661e-01, 3.614984155e-01, -1.564695127e-02, -3.690999746e-02, 3.154083788e-01, 2.295349538e-01, 1.622433960e-01, -2.753200242e-03, 3.630400598e-01, 1.724062562e-01, -4.690518379e-01, -4.352532700e-02, -1.178299710e-01, -2.537512686e-03, 7.059282809e-02, 3.120443821e-01, 3.610478342e-01, -2.048984021e-01, -5.180790424e-01, -1.683529764e-01, -3.718189895e-01, 4.116619825e-01, 4.401951134e-01, 1.269993037e-01, -9.164410830e-02, -3.328078985e-01, 8.128520101e-03, 8.036710620e-01, 3.409882784e-01, 2.803277671e-01, 4.319391847e-01, -1.313993037e-01, -1.481060684e-01, 7.946670055e-02, 2.453503311e-01, 4.261114299e-01, -4.414144158e-01, 1.933542266e-02, -1.235643178e-01, 4.691390395e-01, -4.326348603e-01, 3.594300449e-01, 4.172763526e-01, 5.507982336e-03, 3.313088119e-01, 5.210574251e-03, -2.833404839e-01, 1.046580225e-01, -2.870286349e-03, -2.964633144e-02, -1.502175033e-01, -2.159858793e-01, 5.566952005e-02, 3.187695891e-02, 1.082260907e-01, -3.101929128e-01, -7.297276855e-01, -2.146704495e-02, 3.423953056e-01, -1.168444008e-01, 7.266515493e-02, 5.092871785e-01, -5.761663318e-01, 2.029284686e-01, -3.133167028e-01, -2.185213380e-02, 5.719705224e-01, -5.826605558e-01, -8.432452083e-01, 8.820632845e-02, 1.985032856e-01, -1.335663050e-01, 1.699894369e-01, 4.943490028e-02, 1.942692325e-02, 4.329013228e-01, 3.127153218e-02, 2.891115546e-01, -4.587206841e-01, 4.784185290e-01, 2.925665975e-01, -1.233082172e-02, 5.179172754e-01, 6.519944668e-01, -1.432794929e-01, -3.714652956e-01, -3.132289052e-01, -1.051020846e-01, -2.449604124e-01, 4.239218831e-01, 2.971251607e-01, 5.910540745e-02, 1.562361568e-01, -6.810404658e-01, 8.146789670e-01, -2.444165349e-01, 3.661397845e-03, -2.726766169e-01, -5.737864599e-02, 2.377904207e-01, -1.183258221e-01, -2.623274028e-01, 3.046023548e-01, -2.368317693e-01, 1.846230626e-01, 1.734372377e-01, 2.068057656e-01, 3.166581690e-01, -2.508366108e-01, -1.597205251e-01, 1.506048292e-01, 3.941636682e-01}, {-2.409340590e-01, 2.477460504e-01, -8.031924814e-02, 9.495490789e-02, -9.816037863e-02, -3.385705948e-01, -3.630279005e-01, 3.092147876e-03, -2.846494019e-01, 1.441842690e-02, 8.012016118e-02, 2.257467248e-02, -1.729978323e-01, 2.878456712e-01, 2.287490517e-01, -2.652252838e-02, 1.541194413e-02, -2.848471403e-01, 1.050048620e-01, -2.051432058e-02, 5.053055882e-01, -3.188775778e-01, -8.128300309e-02, 1.417391300e-01, -2.995285392e-01, 1.745461859e-02, 6.709058881e-01, 4.589356780e-01, -9.753193706e-02, 5.944538489e-02, 1.455826461e-01, 2.872715294e-01, 1.456565112e-01, 4.398826361e-01, 5.761690065e-02, -1.566489637e-01, 4.411902726e-01, 9.202801436e-02, -1.878083050e-01, 6.443300098e-02, -1.870002002e-01, 3.760417998e-01, 4.133395255e-01, -9.712685347e-01, 1.451386511e-01, -2.250086516e-01, 4.541886449e-01, 7.660586387e-02, 2.362275571e-01, 2.310725600e-01, 2.963725626e-01, -1.951763481e-01, 2.885116041e-01, -2.710689558e-03, 3.736925777e-03, 2.759760916e-01, 5.613049865e-01, 4.822844174e-03, -4.406451583e-01, -6.933920830e-02, -5.041657686e-01, -1.950764358e-01, 1.686884314e-01, 4.430743158e-01, -3.607522249e-01, 3.396218643e-02, -1.243157983e-01, -3.137547150e-02, 9.945390746e-03, 4.890649766e-02, 1.195585951e-01, -1.342659742e-01, -5.555632114e-01, 8.523902297e-02, 7.440882921e-02, 1.766344905e-01, 4.671351314e-01, 1.685170084e-01, 5.309957862e-01, 3.657993972e-01, 1.142549217e-01, -1.040772200e-01, -6.918806583e-02, -4.945403636e-01, 3.050695360e-01, -1.673879288e-02, 2.749517560e-01, -2.782925963e-01, 4.694163799e-01, 5.175021663e-02, 1.814315915e-01, -6.153656635e-03, 2.291742414e-01, 2.331139296e-01, 2.656570077e-01, 4.964895919e-02, 5.758475661e-01, -5.179622173e-01, 1.469787806e-01, 1.444491297e-01, -3.378009796e-01, 3.195650876e-01, -1.126532163e-02, 2.291253507e-01, -4.932702482e-01, -6.581337750e-02, 5.840149522e-02, 1.956072301e-01, 1.520944834e-01, -1.811765693e-02, 2.978755832e-01, 1.954021901e-01, -7.177175581e-02, -9.730014205e-02, -2.606089711e-01, 3.207264245e-01, 4.618538916e-01, 3.172953129e-01, 1.021368951e-01, 2.445351891e-02}, {4.398462176e-02, 5.150441080e-02, 3.460500538e-01, 2.660146058e-01, -3.455170989e-01, -7.125952095e-02, 1.242678761e-01, -1.244913489e-01, -9.402608871e-02, 5.004859567e-01, -4.031663015e-02, -3.707998991e-01, 1.420727968e+00, -4.241718352e-01, 3.711204827e-01, 9.908531904e-01, 3.319857121e-01, 2.374057472e-01, 8.453129232e-02, 2.260355800e-01, 2.350433916e-01, -5.703971982e-01, -3.132159412e-01, -7.216092944e-02, -2.246839851e-01, -4.796141088e-01, -6.358973980e-01, -2.995488346e-01, 9.038094282e-01, 9.248082042e-01, -6.006300449e-01, 7.751343846e-01, 2.979908288e-01, 2.524371445e-01, 3.572643399e-01, 3.084616959e-01, -4.192338884e-01, -2.306781709e-01, 8.428169787e-02, 4.958578050e-01, 3.031477630e-01, -2.040735930e-01, -5.230527837e-03, -1.786416173e-01, -7.477895170e-02, -2.056891173e-01, 1.963157952e-02, -8.341258764e-02, 4.300728738e-01, 4.842502475e-01, 7.210391760e-01, -4.251834452e-01, 1.399048418e-01, -4.008767307e-01, -1.392182261e-01, 5.723512173e-01, -7.163830400e-01, 1.460786909e-01, -1.069209278e-01, 4.780332744e-01, 5.355569124e-01, 1.494136290e-03, -1.905629933e-01, -8.217120171e-01, -3.195987046e-01, -3.546881378e-01, 3.557322025e-01, 9.591528028e-02, -3.853783011e-01, -4.951597154e-01, 3.276727200e-01, -1.170932651e-01, 1.743170023e-01, 1.403496861e-01, 1.604402661e-01, -2.586261034e-01, 3.227866888e-01, -8.193575740e-01, 3.872256875e-01, -4.095934033e-01, 2.756177783e-01, -2.732652128e-01, -3.226358294e-01, 3.435896337e-01, 4.001145661e-01, -4.025630355e-01, 1.691411436e-01, -3.043950722e-02, -4.777125716e-01, 3.281274438e-01, -4.454927146e-01, -1.605639979e-02, -2.274783552e-01, -3.895980120e-02, 2.238085270e-01, -2.260595411e-01, -1.528909355e-01, -2.354882807e-01, 2.508682311e-01, 2.254276574e-01, -1.576730847e+00, -6.301732361e-02, 5.414416194e-01, -1.632272154e-01, -2.437931448e-01, 1.886602491e-01, -1.242443547e-01, -7.447907329e-02, 7.638266087e-01, 6.291674972e-01, 3.426853418e-01, -2.683347166e-01, -2.392820716e-01, 2.611219883e-01, 7.082247734e-02, 2.007164508e-01, -7.598885298e-01, 7.321200967e-01, -9.588907957e-01, 7.205955386e-01}, {2.593520582e-01, -3.391115367e-01, 6.115695089e-02, 2.720027268e-01, 3.601013720e-01, 3.140189946e-01, 3.855251968e-01, -3.591905534e-01, -1.514431089e-01, -1.909513324e-01, 1.409486830e-01, -9.915995598e-02, -6.417988539e-01, 7.638448477e-01, 7.335543036e-01, 2.111309171e-01, -3.498215377e-01, -3.616029024e-01, 4.544226229e-01, -4.631764293e-01, -3.964229524e-01, -3.448736072e-01, 1.798333079e-01, -3.113132715e-01, 3.337427229e-02, 4.392025769e-01, -2.541740239e-01, -7.494416833e-02, -6.113497913e-02, 6.086807325e-02, 3.142231703e-01, 1.123940796e-01, 1.587286443e-01, -1.794366837e-01, -1.235377640e-01, 3.424424827e-01, -2.727746367e-01, -2.270128131e-01, 3.062770069e-01, -7.048916072e-02, -2.314780205e-01, 1.390150487e-01, 3.081272244e-01, -8.724864721e-01, -6.963025033e-02, 8.510089666e-02, -3.915127516e-01, -1.769447923e-01, -4.002272785e-01, -5.978994370e-01, 9.728509188e-02, 2.487675995e-01, 2.741835639e-02, 1.418571733e-02, 3.194313347e-01, 1.595944315e-01, -4.340292811e-01, 1.193473265e-01, -2.898221314e-01, -5.838949680e-01, 4.414439797e-01, -1.950998753e-01, 4.445115626e-01, 3.470022231e-02, 1.282927692e-01, -1.715900004e-01, 1.865428984e-01, -5.915832892e-02, 4.395177662e-01, -1.056515947e-01, -1.354234070e-01, -1.121898144e-01, -2.954544425e-01, 2.178620845e-01, 2.115157694e-01, 2.176776528e-01, 1.050564796e-01, 2.746027410e-01, -4.781990349e-01, 1.833811700e-01, -5.929066613e-02, 4.632119834e-01, 6.506191492e-01, -4.562845528e-01, -6.558932066e-01, 4.636981487e-01, 3.641807139e-01, -2.611152828e-01, 5.472338200e-01, -3.173319250e-02, 1.288939565e-01, 3.080712259e-01, 5.044946671e-01, -4.400726557e-01, 1.085107997e-01, -9.845081717e-02, 4.070141539e-02, 2.613129616e-01, 2.039895505e-01, 3.581612706e-01, 1.863218248e-01, 9.310962632e-03, -1.257079281e-02, -3.876514435e-01, -3.948347867e-01, -9.166074544e-02, -9.722653776e-02, -3.452901840e-01, -1.323814392e-01, 3.593662977e-01, -3.141221404e-01, -1.459480822e-01, -1.973874271e-01, 4.537988305e-01, -1.953054219e-01, 1.544279605e-01, 5.941989422e-01, 4.246046022e-02, 9.138835222e-02, -1.060655415e-01}, {-1.591350734e-01, 1.029333100e-01, -2.714053988e-01, 1.133574963e+00, -8.942064829e-03, 3.564034402e-01, -2.145551592e-01, 2.396870553e-01, -4.866475463e-01, 4.183632731e-01, 1.359373033e-01, -4.093876779e-01, 6.319540739e-02, 3.751038313e-01, -2.103231288e-02, 8.204180747e-02, -5.016489327e-02, -3.802472651e-01, -3.963694274e-01, -1.466602981e-01, -7.518591732e-02, -2.450686991e-01, -4.112117887e-01, -4.007403553e-01, -6.623619199e-01, -1.218919083e-01, 3.295270503e-01, -7.644584030e-02, -2.970162332e-01, 3.252572715e-01, -5.627439618e-01, -6.873731613e-01, -4.279771149e-01, 4.098641872e-01, 7.610652596e-02, -6.837422848e-01, -1.999023408e-01, -3.002158105e-01, -1.890025735e-01, 1.356627345e-01, -1.574233919e-01, -5.981728435e-01, -2.770284712e-01, -1.045312166e+00, -4.106535614e-01, 7.817175984e-02, -7.072795182e-02, 9.633111209e-02, 2.921258807e-01, 9.544316679e-02, -5.564805269e-01, 1.408450156e-01, -3.114214540e-01, 2.126803696e-01, -3.488208652e-01, 2.299189121e-01, -3.786360919e-01, -1.001679078e-01, -1.779527962e-01, 2.927960455e-01, 1.864199340e-01, -2.675838172e-01, 7.423762977e-02, 2.743292451e-01, -2.860728204e-01, 1.107584313e-01, -1.090327948e-01, -1.013743654e-01, 2.886508107e-01, 4.368523359e-01, 5.210757256e-02, 5.304373056e-02, -1.594460905e-01, 1.405401081e-01, -5.183414221e-01, 2.132664025e-01, -9.565181732e-01, 6.931846589e-02, 1.405974627e-01, 4.446370602e-01, -1.010518596e-01, -4.211287200e-02, 5.276203752e-01, -7.444160581e-01, -5.221583247e-01, -1.076697558e-01, 1.995510608e-02, 1.517587304e-01, 4.303805828e-01, 2.603634894e-01, 2.324604243e-01, 3.155274093e-01, 4.095719159e-01, 2.027987540e-01, -9.289391339e-02, 3.890531883e-02, 2.818517089e-01, -5.121631026e-01, -1.453481317e-01, 3.220100403e-01, -2.037479132e-01, 4.686965048e-01, 2.039750516e-01, 7.157631218e-02, 2.649913430e-01, -2.345593423e-01, 2.620455027e-01, -3.142973781e-01, -2.762700990e-02, 4.709201753e-01, -1.170820147e-01, 2.117428035e-01, -1.347267926e-01, -2.765303254e-01, -2.477933913e-01, 5.181302130e-02, 3.724668622e-01, 3.825314343e-01, -6.868447661e-01, -1.346957125e-02}, {1.960713416e-01, 3.891138136e-01, 2.562604845e-01, -2.570776343e-01, 2.903583646e-01, -1.485910714e-01, 3.170438707e-01, 1.165781543e-01, 4.627933502e-01, 1.927585006e-01, 2.776519060e-01, 2.517940998e-01, 2.498160899e-01, -2.768358588e-01, 1.657150090e-01, 1.581037976e-02, 7.078805566e-01, -6.400819123e-02, -7.811397314e-01, -3.802629113e-01, 1.817757785e-01, 2.778206170e-01, 1.095498353e-02, 1.197241247e-02, 3.000620008e-01, -3.675731421e-01, -4.474050105e-01, -1.632088572e-01, 4.196498692e-01, 1.847009733e-02, -1.032836642e-02, -2.468805164e-01, -8.487402201e-01, 4.778539240e-01, -4.953441620e-01, 2.008307427e-01, -9.101755172e-02, -7.293938994e-01, -2.107436210e-02, -2.067635357e-01, 4.618413001e-02, 4.795156419e-01, -3.675676584e-01, -2.364211231e-01, -2.342974246e-01, 9.018050134e-02, 3.944899738e-01, -3.855012655e-01, -4.862233251e-02, -4.313635528e-01, 3.607976064e-02, -1.478661746e-01, 4.137907028e-01, 6.572096348e-01, -2.920498550e-01, 4.912398756e-01, 2.417659909e-01, 6.215824932e-02, -2.893040180e-01, 1.138766110e-01, -2.465037405e-01, 8.908177167e-02, -3.682976067e-01, -2.660831250e-02, -4.331134856e-01, -2.517617345e-01, 2.073040754e-01, 3.052031398e-01, -7.235991955e-01, -1.882183254e-01, 1.159486622e-01, -3.407049477e-01, -2.750639915e-01, 2.622940242e-01, -2.234417796e-01, 9.458814859e-01, 3.037793934e-01, 2.199704200e-01, 4.717593491e-01, -3.244416118e-01, -1.014793366e-01, -1.405805070e-02, 4.916879535e-01, -1.999665983e-02, -1.324045360e-01, -1.758144498e-01, -3.766902387e-01, -3.012383878e-01, -4.885802865e-01, -3.104296029e-01, -7.353381813e-02, 5.024669170e-01, -3.989174068e-01, 6.623786688e-01, 5.980258584e-01, 3.499138653e-01, 7.442507148e-02, 1.264121830e-01, 1.388501823e-01, -1.027081370e+00, 2.553580403e-01, -4.241856933e-01, 4.415462017e-01, -2.224315144e-02, -5.730655417e-02, 1.638181359e-01, 2.774135768e-01, 3.992067873e-01, 3.508338928e-01, -3.325117826e-01, -3.364504129e-02, -1.910173101e-03, 6.780848503e-01, 1.263770610e-01, -1.755114794e-01, 2.615262568e-01, -4.300237447e-02, -7.119072229e-02, 1.537589729e-02, -1.624102145e-01}, {3.435924947e-01, -6.128268838e-01, 1.875494123e-01, -5.289289355e-01, 4.705579877e-01, -5.855637789e-01, 4.380205572e-01, -1.774584651e-01, -2.119318843e-01, -1.197191924e-01, 6.614898443e-01, 9.254891872e-01, -1.042798981e-01, -1.629648209e-01, -2.875214517e-01, 4.066949189e-01, 1.370062977e-01, -8.786268234e-01, 5.459680408e-02, 1.605700701e-01, 1.932384968e-01, -1.366666108e-01, -1.418711841e-01, 3.435787857e-01, -2.006921172e-01, 2.402913719e-01, 1.853676438e-01, -7.504955679e-02, 3.425221741e-01, -5.182132125e-01, -2.516891658e-01, 8.521359563e-01, -3.931909800e-01, -1.676840931e-01, 1.223736033e-01, -3.750344366e-02, 6.640285850e-01, -5.253748894e-01, -1.021931246e-01, -2.107068449e-01, 4.089748487e-02, -8.892981336e-03, -2.536838949e-01, 3.570899665e-01, 6.164091825e-01, -1.533000618e-01, 8.338105679e-02, 1.018419862e-01, -3.874415457e-01, 1.658885479e-01, -7.046430707e-01, -8.016266227e-01, 3.574792445e-01, -5.445757508e-01, -5.324332118e-01, -2.534777522e-01, 4.248552322e-01, 8.010110259e-02, 5.750753284e-01, -1.963498592e-01, -3.199649751e-01, -1.934885532e-01, -3.416849375e-01, -7.055411935e-01, 3.493064642e-01, -4.300542474e-01, -1.053701639e+00, 2.080784878e-03, 2.991827428e-01, 3.215980232e-01, -3.420482948e-02, -3.584868908e-01, 1.518335789e-01, 2.986759245e-01, -2.782694697e-01, 8.508856893e-01, 4.601618946e-01, 8.490141034e-01, -4.504269734e-02, -8.819521964e-02, -1.396227181e-01, -4.452777654e-02, 4.427677095e-01, 2.187635452e-01, -4.563093781e-01, 3.620371521e-01, -3.648416400e-01, 5.381538868e-01, 4.380912185e-01, -6.222718954e-02, -1.231584921e-01, -3.704494238e-02, -3.876882195e-01, -7.801929116e-02, -1.590437740e-01, -5.727766156e-01, 1.001205519e-01, 1.100048870e-01, -6.409974098e-01, -1.697640270e-01, -1.478897631e-01, 4.916586876e-01, 5.551522970e-02, 5.813385248e-01, 9.533625096e-02, -2.511964738e-01, -3.721999526e-01, 3.217719793e-01, 1.548913419e-01, 8.475086093e-02, 6.426267326e-02, -7.421196103e-01, 3.908677399e-01, 8.009212613e-01, -6.261414886e-01, -3.950154483e-01, -9.585750848e-02, 3.197999299e-01, -1.826622337e-01, -3.108528852e-01}, {7.445351779e-02, 4.845886528e-01, -4.570517689e-03, -1.069442272e+00, -1.856859088e+00, -2.286530286e-01, -1.034759581e-01, 3.224531114e-01, -1.838927865e+00, 1.082734466e-01, -7.577301562e-02, 2.989219129e-02, 1.721594483e-01, -1.093901157e+00, 2.716302872e-01, -8.263931423e-02, 4.457640275e-02, 9.350990057e-01, 5.232228637e-01, 2.373846173e-01, -2.610148191e-01, -8.819691092e-02, 1.595852673e-01, 2.416851670e-01, 4.609450996e-01, -6.803733110e-02, 5.693967342e-01, -4.470818043e-01, 9.414662123e-01, -5.265836120e-01, 1.760158837e-01, -4.351780713e-01, 3.124926686e-01, 3.678436279e-01, -3.154340684e-01, -4.080814421e-01, -2.928320765e-01, -3.447928429e-01, -6.897933483e-01, -1.056613445e+00, -1.679146737e-01, -2.957656384e-01, 3.982070386e-01, -6.223918200e-01, -3.570125997e-01, -8.290746808e-01, 1.105246469e-01, 3.628742695e-01, 2.011395693e-01, 3.200648427e-01, 3.332217038e-01, 5.986095071e-01, -7.107622027e-01, 3.839440048e-01, -3.244914711e-01, 5.138052106e-01, 2.598966062e-01, -3.672049642e-01, -2.052321434e-01, 1.111168027e+00, -4.277336970e-02, 2.996254861e-01, 3.896060288e-01, -9.105817080e-01, -2.516077161e-01, -2.237380110e-02, 3.227841854e-01, 1.462016106e-01, -6.926859021e-01, 1.223183125e-01, 9.629532695e-01, 3.750929832e-01, 2.203897759e-02, 1.617771387e-01, 3.787763119e-01, 7.123937607e-01, 4.377758801e-01, 9.710372686e-01, -3.357868195e-01, 4.092041850e-01, 6.627235562e-02, 9.460505098e-02, 3.552902956e-03, -6.619740129e-01, 2.954384089e-01, -1.415735006e+00, -1.204274893e-01, -5.048135519e-01, -2.420545340e+00, 7.300473005e-02, 2.236896902e-01, 8.486378193e-02, -1.874673843e+00, 6.140317321e-01, -1.397058219e-01, -1.986459047e-01, 8.893435001e-01, -3.379323781e-01, -1.336061358e-01, 1.486359835e-01, 1.465994269e-01, 3.032355607e-01, 8.663638234e-01, 1.083733916e+00, -1.048765659e+00, -2.431583963e-02, -5.398291349e-02, 4.268621504e-01, -6.725124270e-02, -6.371253133e-01, 5.554667711e-01, 1.088390648e-01, 5.370771885e-01, -1.052986741e+00, 5.804336816e-02, -2.144284360e-02, 3.442330956e-01, 9.300403297e-02, 6.987053752e-01, 1.388198584e-01}, {-1.323421359e+00, 6.976190954e-02, 1.585252136e-01, 6.384770870e-01, -6.187872887e-01, -3.602843881e-01, -7.498295903e-01, -8.505774736e-01, 5.421710014e-01, 5.643295497e-02, -6.614857912e-01, -3.863932192e-01, -7.078868896e-02, 1.562862843e-01, 9.288704395e-02, -7.578494400e-02, 2.311684787e-01, -8.610817194e-01, 7.333632708e-01, -4.766752422e-01, 1.222692057e-01, -5.160347223e-01, 4.004113674e-01, -9.059576392e-01, -4.542293251e-01, 3.346369863e-01, -3.519517779e-01, 3.475124240e-01, -6.318715811e-01, -5.754301548e-01, -6.219529361e-02, -5.464114547e-01, -3.784854412e-01, -2.195069380e-02, -4.064408243e-01, -4.975850880e-01, 7.542505860e-02, 1.162602529e-01, 5.110769868e-01, 1.343981922e-01, -3.803961575e-01, -7.377839088e-01, 4.669663906e-01, 3.643938005e-01, -5.135705471e-01, 6.905302405e-02, -6.993291378e-01, 1.579202339e-02, -2.129265666e-01, 1.044738665e-02, -8.384273052e-01, -5.317108035e-01, -1.393024087e+00, -3.531908393e-01, -9.213541746e-01, -1.080355763e+00, 5.498502851e-01, -2.446323484e-01, -7.508596778e-02, 1.531467587e-01, -2.230642438e-01, -1.494736820e-01, 7.579140067e-01, -1.924543381e-01, 6.480254531e-01, 6.998695433e-02, -1.657108665e-01, 9.064517021e-01, 2.085974813e-01, -1.579812765e-01, -2.402944416e-01, 1.926904023e-01, -1.793364882e+00, -2.215789557e-01, -5.750430822e-01, -6.725271046e-02, -2.803308144e-02, -4.985065013e-02, 1.880072355e-01, -2.663738430e-01, 2.375434339e-01, 4.750753045e-01, 3.939662874e-01, -1.525138766e-01, -3.832470775e-01, 1.777057201e-01, -6.077661738e-02, 3.258580565e-01, -7.333997488e-01, -3.056982458e-01, 1.760672033e-02, 9.906613082e-02, 1.286894381e-01, -9.087522030e-01, -2.122052163e-01, 1.191548631e-02, 7.549504936e-02, 1.152750254e+00, -4.532468319e-01, 1.154301614e-01, -9.287928045e-02, 1.783405393e-01, 3.495182097e-01, -6.166009307e-01, 4.949717522e-01, -5.611865520e-01, -1.123042554e-01, 1.141490266e-01, -2.266441733e-01, -4.134775996e-01, -7.892584205e-01, 6.529818177e-01, 4.553510249e-01, -1.936193183e-02, -1.199687943e-01, 1.399563104e-01, 5.721722841e-01, -1.699850410e-01, -3.054298162e-01, 2.575079501e-01}, {-4.660054445e-01, -1.441374719e-01, 6.551599503e-01, -3.422060251e+00, -2.246761799e+00, -1.730682731e+00, -3.534145653e-01, -8.360289335e-01, -5.941855311e-01, 2.458559722e-02, -7.905951738e-01, -2.857149363e+00, 2.444919646e-01, -1.259712934e+00, 5.188066885e-02, 3.334730268e-01, 9.659410715e-01, -1.612938166e+00, 5.847713947e-01, -1.536831617e+00, -7.240155935e-01, 4.268464744e-01, -1.959288418e-01, 2.383413613e-01, -1.135350466e+00, -1.685274243e-01, 3.540328741e-01, -1.091123343e+00, -2.477022171e+00, -1.293565154e+00, -1.035370007e-01, -1.256362915e+00, -6.203445196e-01, 1.686279476e-01, 9.425739199e-02, 4.532441795e-01, -6.945887208e-01, -7.003148198e-01, 6.982043982e-01, -1.147900149e-01, 8.696026206e-01, 6.159329414e-01, 4.128615260e-01, 3.235547245e-01, 2.054254152e-02, 1.312173367e+00, 5.592322946e-01, 1.335448623e-01, 1.125812292e+00, -6.613688469e+00, -3.427642286e-01, 4.670401812e-01, -2.916648090e-01, 2.747991085e-01, -3.987746239e-01, 4.534866512e-01, 2.741903663e-01, -7.315141559e-01, -7.482886314e-02, -2.055978060e+00, -1.182831287e+00, 2.421971262e-01, 3.593688458e-02, 3.279466629e-01, -3.535960801e-03, 4.814630747e-02, 2.969669104e-01, -2.775853276e-01, -9.870758057e-01, -2.759959102e-01, -4.623151943e-02, -3.609238565e-01, -4.365000248e+00, 7.449482381e-02, 1.986026913e-01, 7.226449847e-01, 6.889162660e-01, -3.331895769e-01, -4.456979036e-01, -4.513256997e-02, 3.560315967e-01, 3.683986142e-02, -6.999660283e-02, -1.325839877e+00, 7.283733040e-02, -2.400651217e+00, -2.514603734e-01, 2.778638899e-02, -1.539949059e+00, 3.194316030e-01, -2.038813531e-01, -1.407407522e-01, -6.458560228e-01, -3.905170858e-01, -1.187050715e-01, -4.513492584e-01, -4.509244263e-01, 1.781011701e+00, -1.802343726e+00, 4.191781580e-01, 4.749419391e-01, 2.416594923e-01, -2.056048214e-01, 9.038748145e-01, 3.452775776e-01, 5.869758725e-01, -3.400720060e-01, 1.200480685e-01, 6.535616517e-01, 9.400868416e-01, 2.126403339e-02, 1.065401435e-01, 2.746531665e-01, 9.432392716e-01, -3.539289832e-01, 5.695561171e-01, 4.652532935e-01, 7.572735101e-02, -6.202996731e+00, 6.093007326e-01}, {7.259456813e-02, 3.473199010e-01, 1.302305311e-01, -8.068116754e-02, 5.420563975e-04, 5.413512588e-01, 1.439239085e-01, -1.153561249e-01, 3.325282931e-01, 7.253692299e-02, 1.937988400e-01, -2.694793418e-02, -2.642726004e-01, 3.058809340e-01, -4.205722511e-01, -1.033676118e-01, 1.552864760e-01, -4.508671165e-01, 1.062345207e-01, 1.662810892e-02, -6.275257468e-01, -4.622614384e-01, 1.406751126e-01, 4.764848948e-02, -2.195023149e-01, -6.438738704e-01, 3.658417463e-01, -4.923434258e-01, 5.737316608e-01, 4.936460853e-01, 2.948915660e-01, 5.121393800e-01, -9.148156643e-02, -3.295952976e-01, -3.383835554e-01, -2.115388662e-01, -1.711364836e-01, -7.351330668e-02, -9.033422917e-02, 2.039900571e-01, -4.291845560e-01, 5.521230102e-01, 4.732337296e-01, -7.071694732e-01, -1.840512156e-01, -6.596414745e-02, 9.274893999e-02, 2.954861522e-01, -1.549108624e-01, 1.255231798e-01, -2.996841967e-01, 5.404999852e-01, 1.276488006e-01, 1.149956952e-04, -7.811708748e-02, 4.850213230e-01, 2.197433114e-01, 9.698861092e-02, -1.525526196e-01, -3.566881418e-01, -5.040783286e-01, -2.306462973e-01, -2.461066991e-01, 1.688251644e-01, -4.109715223e-01, 5.871634558e-02, 6.795787811e-01, 5.904702544e-01, 2.057035118e-01, 4.198436439e-01, -2.576751709e-01, 3.350163996e-01, -1.886310279e-01, -4.978124052e-02, -1.515186876e-01, -2.063747644e-01, 7.989381999e-02, -1.575263441e-01, -7.615112662e-01, 3.487336040e-01, -7.537502646e-01, 4.183880985e-02, -3.922794014e-03, -1.128994524e-01, -5.463741347e-02, -2.641412020e-01, -5.848127976e-02, -1.898239106e-01, 6.773078442e-02, -1.636172384e-01, -3.020229936e-01, 6.351668388e-02, 4.978066683e-01, 5.883954763e-01, -2.926194370e-01, 7.762527466e-01, 2.236878723e-01, -2.341711335e-02, -1.813249290e-02, -7.631599158e-02, -1.354577579e-02, -3.683230281e-01, 1.511256099e-01, -1.887624385e-03, -8.777116239e-02, 2.047683746e-01, -3.302090243e-02, 4.507670999e-01, 2.294476032e-01, -1.153465956e-01, 9.989875555e-02, 4.840592742e-01, 1.522244364e-01, -4.864541292e-01, 3.305953145e-01, -1.753894836e-01, -2.347465008e-01, 2.830191851e-01, -5.251666903e-01, 4.688635841e-02}, {1.128948852e-01, 9.189843200e-03, 2.031689510e-02, -2.247229218e-01, -8.635658771e-02, 3.402271867e-02, -2.883522213e-01, -2.798182070e-01, -3.019201458e-01, -6.656223536e-01, 4.828764498e-01, -5.236191750e-01, -1.470104903e-01, 5.405516028e-01, -6.600646768e-03, -1.668346971e-01, -2.481375784e-01, -4.500890076e-01, 6.994322538e-01, 4.511597157e-01, -5.374906659e-01, -7.042627931e-01, -2.116337717e-01, -2.038247734e-01, -1.158984974e-01, 3.135684431e-01, 6.342566609e-01, 3.033122420e-01, -5.248693228e-01, -4.340409935e-01, -4.758737609e-02, 3.227984309e-01, 2.128012776e-01, 2.102266848e-01, 1.148262471e-01, -6.141787395e-02, -1.098244190e-01, 1.142594591e-01, -4.172386602e-02, -4.533139467e-01, -1.891117841e-01, 1.513648406e-02, -3.572517261e-02, -5.702961683e-01, 1.018614992e-01, 1.510313898e-01, 3.061928749e-01, -1.646001339e-01, 2.680775821e-01, 3.650465310e-01, -2.000042647e-01, 3.015740216e-01, 4.350672364e-01, -9.381055832e-02, 1.336880028e-01, 3.760933178e-03, 1.267218143e-01, -2.677772343e-01, -4.080440104e-01, 1.204386204e-01, -4.470177740e-02, 1.286617965e-01, -2.072692364e-01, -1.553020775e-01, 2.498721033e-01, -2.013110965e-01, 4.029579461e-01, -1.363804787e-01, 2.683308423e-01, 4.852078557e-01, -8.668345213e-02, 4.659002647e-03, -3.450600505e-01, -1.163831800e-01, 3.674785793e-01, -1.107750684e-01, -2.098900676e-01, -2.314203829e-01, 2.910166085e-01, 3.703086972e-01, -2.889750600e-01, -6.199790835e-01, 1.425960064e-01, -1.076207086e-01, -2.978014015e-02, 7.455835342e-01, 1.731489971e-02, -3.536178470e-01, 7.981262803e-01, -1.466098577e-01, -1.280571818e-01, -1.243515462e-01, 7.235472798e-01, -2.481059581e-01, -1.631372720e-01, 1.770320833e-01, 3.003959730e-02, -4.915921986e-01, -3.795060515e-01, -3.638176247e-02, -3.783287108e-01, -1.111853216e-02, 2.383472770e-01, -5.921531916e-01, 1.891608387e-01, -7.919440269e-01, -4.412492514e-01, -1.123601943e-01, -1.258286238e-01, 4.205527306e-01, -2.236333787e-01, -2.225828767e-01, 1.612096429e-01, -1.492277086e-01, -2.089865059e-01, 1.774006784e-01, 3.182711899e-01, -3.393006325e-01, -1.259204894e-01, -9.642194957e-02}, {-4.518654943e-02, 1.477111876e-01, -2.491583526e-01, -5.875772238e-01, 2.877793834e-02, -3.695369363e-01, -5.195619464e-01, -2.404944152e-01, 9.088537097e-01, -1.163769662e-01, -7.743587345e-02, -3.031486869e-01, -4.434081540e-02, 3.285626769e-01, 9.583115578e-02, -1.278396696e-01, -7.797749639e-01, -5.465883613e-01, -5.686757565e-01, -2.487632781e-01, -7.782859355e-02, -5.794816017e-01, 2.004865855e-01, -2.306912988e-01, 1.077028289e-01, -8.493069410e-01, 3.169817626e-01, -2.911178172e-01, -2.179579437e-01, -9.139386006e-03, 1.412327029e-02, 1.368265450e-01, 3.649972975e-01, -4.222910404e-01, 3.509043902e-02, -5.351284146e-01, -1.060233712e-01, -5.179787874e-01, 8.223882914e-01, -4.484420419e-01, 2.026247680e-01, -5.044901371e-02, 1.409909725e-01, -2.203626484e-01, 4.150352627e-02, -6.058337688e-01, -7.469414268e-03, 5.278183818e-01, 8.392868638e-01, 4.963796213e-02, 1.823717952e-01, -9.871891141e-01, -1.278080791e-01, -2.077141255e-01, -2.088383287e-01, 3.343527317e-01, -1.007081866e-01, -1.019310206e-01, -6.932907104e-01, -5.352887511e-01, 4.312519133e-01, -3.255462507e-03, -1.103126481e-01, -9.616382122e-01, 3.033203073e-03, -1.155450493e-01, -5.241460726e-02, 4.127273336e-02, -3.403269649e-01, -5.751556754e-01, 8.740148693e-02, -2.786110640e-01, 4.224497676e-01, 1.642117463e-02, 4.358901083e-01, 3.230102956e-01, -8.504067361e-02, 2.289688736e-01, -6.472359598e-02, -5.818911791e-01, -3.724924475e-02, -1.557223201e-01, 2.257389277e-01, 3.505796492e-01, -4.537317157e-02, 1.878516078e-01, 3.788046539e-01, -6.847183108e-01, 2.258878052e-01, 1.929395199e-01, 2.813942432e-01, -9.002634883e-01, -1.753987521e-01, 2.542046010e-01, -3.235582411e-01, 6.202715635e-01, -5.279053003e-02, 8.811541796e-01, 1.196023673e-01, 3.063930869e-01, 5.283414125e-01, 6.124531850e-02, 8.225319535e-02, -4.492069185e-01, -3.224718869e-01, -3.401870131e-01, -2.965558767e-01, 4.185545146e-01, -2.190963775e-01, 2.370882332e-01, -8.078034967e-02, 5.834624544e-02, 2.037696838e-01, -1.512839496e-01, 2.551863492e-01, 7.941861749e-01, -2.867575586e-01, 1.273396850e+00, -2.396597564e-01, 4.470453262e-01}, {-1.459304541e-01, 1.260090023e-01, -6.301227808e-01, -3.887771964e-01, 1.492882222e-01, 1.564202905e-01, 3.574373126e-01, 5.232037231e-02, 6.883314997e-02, -1.286811978e-01, 6.384692341e-02, 2.851170301e-01, 1.931343414e-02, 5.784207955e-03, 2.351711988e-01, -7.002320886e-02, -1.433975250e-01, -1.020266533e+00, -9.138001800e-01, 7.662088275e-01, -6.606042385e-02, -2.464527339e-01, 1.298196763e-01, 1.029837206e-01, 1.597794821e-03, -1.916990429e-01, 4.447756708e-01, -1.493742466e-01, 2.413790077e-01, -1.400996745e-01, -3.988575041e-01, 1.208221093e-01, -1.540772170e-01, 2.965606563e-02, 6.173125505e-01, -8.267626911e-02, 3.073942959e-01, -2.805656493e-01, -3.437195122e-01, -2.307964265e-01, -2.795965075e-01, -1.799556017e-01, 1.473743469e-01, -1.985615194e-01, 5.499103665e-01, 1.192873195e-01, 8.032997847e-01, -1.634939313e-01, -2.327845246e-01, 2.597197890e-01, 1.687053144e-01, -4.873697758e-01, 4.702186286e-01, 6.521171331e-02, -1.372812665e-03, 9.604787081e-02, -8.820436001e-01, -5.384621620e-01, 7.853361219e-02, -1.284511924e+00, 2.115357369e-01, -1.442817301e-01, -8.192065358e-01, -4.446496069e-01, -1.918381304e-01, -5.618417859e-01, -9.506307542e-02, -2.222778052e-01, 3.636074662e-01, -2.592825890e-01, -1.503600627e-01, -3.459783196e-01, -3.545953929e-01, -1.306370050e-01, 1.257755607e-01, 9.085863829e-02, 1.266402602e-01, 2.479924075e-02, -2.369120158e-02, -6.829861552e-02, -2.219278067e-01, -1.409903914e-01, -3.444161415e-01, 2.987760603e-01, 2.655190825e-01, 4.095763862e-01, -2.550012171e-01, 2.628364265e-01, 8.124197125e-01, -1.094137579e-01, -4.198695719e-02, 2.970507741e-01, 6.992323697e-02, -3.803965747e-01, 3.298782408e-01, -1.305767596e-01, 3.151174188e-01, 1.103258729e-01, -5.086792111e-01, -1.290421724e+00, 2.720948458e-01, -1.702364832e-01, -2.941376865e-01, -1.785097420e-01, 1.702343524e-01, -5.306513906e-01, -5.859140754e-01, 3.414648771e-01, -1.357351094e-01, -6.584141254e-01, 5.736103058e-01, -4.832161367e-01, -1.597921550e-01, 1.552269757e-01, -2.230421007e-01, -1.210387610e-02, -3.056081235e-01, 3.201963603e-01, -1.870976686e-01, 2.520201206e-01}, {1.653320342e-01, 1.030764356e-01, -4.557179660e-02, -1.017950177e+00, 1.410057843e-01, 4.773682356e-01, -2.952410877e-01, -1.773338765e-01, -3.669670597e-02, 1.802225113e-01, -4.220533669e-01, -2.969473004e-01, -4.215765744e-02, 1.387396902e-01, -6.760458350e-01, -9.515612572e-02, -4.027926549e-02, 7.105096579e-01, -3.079519868e-01, -3.952731192e-01, 2.641816139e-01, 1.978177130e-01, 1.450044364e-01, -1.094007939e-01, 7.766737044e-02, 6.132158637e-01, 2.535037696e-01, 2.177191824e-01, -1.094938397e+00, 1.502838135e-01, 3.108840287e-01, -7.446857095e-01, 6.726677418e-01, -1.493179053e-01, -4.111433867e-03, -2.147928476e-01, -4.268978164e-02, 2.748788148e-02, 2.374378778e-02, 3.557977974e-01, 1.080036759e-01, 3.734852672e-01, 1.866718233e-01, 4.008529186e-01, -5.241397619e-01, 1.010533571e-01, 4.559139013e-01, 4.471570253e-01, 2.518092096e-02, 5.741645116e-03, -2.269396335e-01, 6.630758643e-01, -5.241380334e-01, 1.455381066e-01, -9.807138890e-02, -3.118580282e-01, 5.146950483e-01, -3.057112359e-02, -5.639081448e-02, -3.155238628e-01, -7.958743572e-01, 7.268389314e-02, 7.166127115e-02, 6.655037403e-02, -1.756283194e-01, -8.135260344e-01, -2.955147922e-01, -4.103726149e-01, -1.897243112e-01, 2.751697004e-01, -9.692511559e-01, 1.828191429e-01, -5.052708387e-01, 2.580310404e-01, 5.521233678e-01, -6.028815508e-01, 2.808202505e-01, -1.444398165e+00, -5.353857875e-01, -1.247536242e-01, 8.836252987e-02, -5.921960473e-01, -4.042028636e-02, 4.765321016e-01, 2.794001997e-01, 1.101235673e-02, -1.347741038e-01, -3.676455021e-01, -9.000197053e-03, -1.385970712e-01, -4.326217249e-02, -2.784437239e-01, 3.867172003e-01, -1.919463128e-01, -2.061598003e-01, -9.138750285e-02, -8.515258431e-01, -9.516272694e-02, 2.008626014e-01, -1.378415823e-01, -1.449017227e-01, 1.369452775e-01, 1.280274838e-01, -4.628895819e-01, -3.577950895e-01, -2.223417908e-01, -2.309148759e-01, -2.733496130e-01, 4.403447807e-01, -6.476079673e-02, 3.886385262e-01, 3.447670937e-01, 3.198772669e-01, -2.255588919e-01, 9.381010383e-02, 5.919478536e-01, -6.479056478e-01, 3.693380356e-01, -3.367485106e-02, -1.780563891e-01}, {-1.996344030e-01, -9.155309945e-02, 2.989948727e-02, -1.206552982e+00, -4.131159186e-01, 7.658997923e-02, 9.399703145e-02, -1.658706218e-01, -2.987944782e-01, -2.447182536e-01, 1.856442094e-01, -3.449180722e-01, 1.069157273e-01, 2.299071997e-01, -1.761005074e-01, 2.514357269e-01, 1.664860360e-02, -4.304417074e-01, 9.785762988e-03, -5.406814814e-01, 2.328506112e-02, -4.564807713e-01, 1.284088045e-01, -4.380180538e-01, -1.967520565e-01, -7.046757936e-01, -9.772374481e-02, 3.493748605e-02, -5.757666826e-01, -5.687095970e-02, 3.654992580e-01, -2.662510052e-02, 5.893698335e-01, -1.906003803e-01, 4.895931110e-02, -4.312516451e-01, -1.528942823e+00, 1.964703351e-01, 1.462894529e-01, -5.451912284e-01, 1.473203748e-01, -4.003199041e-01, 3.232046068e-01, -6.098027825e-01, -4.177236855e-01, 6.848393381e-02, 2.294670418e-02, 3.645526618e-02, 3.512772620e-01, -5.047271252e-01, 2.466886863e-02, -3.237403333e-01, 1.781015545e-01, 3.344094455e-01, -5.546280742e-02, -2.766088583e-02, 2.330235541e-01, -2.497861721e-02, -8.587770462e-01, -3.176937401e-01, -2.686010003e-01, -7.079655677e-02, 2.247477919e-01, -3.748753667e-01, 6.954982132e-02, -3.065861166e-01, 3.959375918e-01, -3.240075409e-01, -6.672475934e-01, 5.224632621e-01, -4.086261615e-03, -1.621275842e-01, -2.668206580e-02, 7.572159767e-01, 1.016974151e-01, 6.329866499e-02, 2.358826250e-01, 3.696997836e-02, 9.332867861e-01, -3.515593708e-02, -4.010455310e-02, 2.982857227e-01, -2.994158119e-02, -4.524760544e-01, 7.786493003e-02, 1.428425312e-01, -1.487154961e-01, 1.135819405e-02, 2.678523660e-01, 2.932704240e-02, 2.753217518e-01, -5.008332133e-01, 3.956668675e-01, 3.098883927e-01, 1.796891838e-01, -2.323882878e-01, -1.885178685e-02, -2.743185461e-01, 2.245337516e-02, 3.947231174e-01, -6.931658089e-02, 8.713910356e-03, 8.136871457e-02, -4.282041788e-01, -6.111488342e-01, -9.527012706e-02, -5.415438488e-02, 4.558778107e-01, 2.988279462e-01, 1.032780185e-01, 1.174232438e-01, -8.987420239e-03, 6.967713237e-01, -3.671983778e-01, -1.982136369e-01, 9.788024426e-02, -3.902603388e-01, -4.928583279e-02, -4.518114924e-01, -1.378006041e-01}, {-6.355511397e-02, 2.079784125e-01, 5.324392766e-02, -1.150452048e-01, 2.174607515e-01, 1.733187586e-01, 2.359162122e-01, -1.744068265e-01, -2.165787965e-01, -6.846310198e-02, 6.349704415e-02, -1.141032130e-01, 1.756361723e-01, 2.113613933e-01, 3.769828081e-01, 1.322085559e-01, 1.253895164e-01, 1.831629425e-01, -1.898526214e-03, -1.677059680e-01, -3.440316021e-01, -4.205244780e-01, -2.925964892e-01, 4.289926589e-01, -4.844457805e-01, -2.268482447e-01, 5.885862112e-01, 3.634957373e-01, -2.190182060e-01, -7.057694793e-01, 5.919774175e-01, 7.894611359e-02, -9.965429455e-02, -3.095596135e-01, -7.570922971e-01, -2.844259143e-01, 4.221268594e-01, 5.251454711e-01, 1.039526537e-01, 7.162765265e-01, 1.290369779e-01, 2.165885568e-01, -5.800909922e-02, 1.479267795e-02, -7.608199716e-01, 1.482663751e-01, 9.041587263e-02, 1.743924022e-01, 2.707416713e-01, -2.331542075e-01, -6.411032677e-01, -1.522034705e-01, -3.816240281e-02, 8.653090149e-02, -1.214128286e-01, 2.542881668e-01, 6.597963572e-01, -1.876330972e-01, -4.961644486e-02, 5.811241865e-01, -7.650647759e-01, -5.001346767e-02, 2.443297803e-01, 2.282420099e-01, -2.390790284e-01, 3.932320774e-01, 1.510221511e-01, -3.278143704e-01, -1.634109914e-01, -1.135986764e-02, 4.954294488e-02, -6.438798904e-01, 6.683489680e-02, 2.309695631e-01, -1.897055656e-01, 8.946174979e-01, -3.000960648e-01, -5.704045892e-01, -1.109199300e-01, -3.975175619e-01, -3.237390816e-01, -4.115771130e-02, -1.843524277e-01, -2.581043243e-01, 1.644816995e-01, 3.834068179e-01, 3.060604632e-01, -1.398164034e-01, 1.595336348e-01, -1.890130937e-01, 7.140174508e-01, -5.712427497e-01, 7.817521691e-02, 8.816952705e-01, -1.200302541e-01, -1.028774977e-01, 9.215083718e-02, 4.767332971e-01, -2.149021178e-01, 1.569971591e-01, 2.406516969e-01, 5.370581150e-01, 3.948543370e-01, 1.332051605e-01, -2.426306009e-01, 4.480289221e-01, 5.617259145e-01, 5.696726590e-02, 4.211340547e-01, -6.213003024e-02, 1.762831956e-01, 1.003072619e+00, 7.601909041e-01, 2.974142134e-01, -3.749288917e-01, -4.972787797e-01, 6.520377994e-01, -8.571670204e-02, -9.550573677e-02, -9.705397487e-02}, {-1.912986189e-01, 3.882602090e-03, -4.784617573e-02, 3.417855203e-01, 1.531778574e-01, -2.853178084e-01, -4.309041202e-01, -4.426549971e-01, 5.452626944e-01, -5.599005222e-01, 8.452358842e-02, 4.171683639e-02, -1.609741151e-02, -1.875518411e-01, 4.867670238e-01, -7.263572514e-02, 1.138455391e+00, 1.206166744e-01, 3.597250953e-02, -1.662029326e-01, 4.720608890e-01, -6.268942952e-01, 3.948251903e-01, 4.763393998e-01, -4.537570477e-02, -2.079460472e-01, -1.015550494e+00, -2.063875273e-02, -7.095456123e-02, -4.004350901e-01, 4.273725748e-01, 7.714580894e-01, 2.900871933e-01, 3.539248705e-01, 2.894519866e-01, 5.833431482e-01, -5.681883097e-01, -7.930029631e-01, -7.041964531e+00, -3.882561028e-01, 3.300436437e-01, -4.428770840e-01, 5.781339481e-02, -3.078970611e-01, 4.412856102e-01, -7.376267314e-01, -1.405327395e-02, 1.474590182e+00, 9.409914017e-01, 3.299650922e-02, 3.280979097e-01, -1.365667284e-01, -1.588503122e-01, -2.949274704e-02, -9.682499170e-01, 2.827810943e-01, -6.580318213e-01, -1.482186317e-01, -6.828398705e-01, -3.633015156e-01, 7.170046121e-02, -2.659173012e-01, -2.357763946e-01, -8.840171099e-01, 5.495190024e-01, -4.670511484e-01, 2.585358024e-01, 8.182412386e-01, -5.029547215e-01, 6.831995845e-01, -1.110251769e-01, -5.307126641e-01, 1.265399575e+00, -6.157005206e-02, 1.797728539e-01, 2.008021176e-01, -5.666548759e-02, -3.172624111e-02, 2.568817437e-01, -1.133274198e+00, -4.510971308e-01, -5.355116129e-01, 5.963554382e-01, 1.194882542e-01, -6.105501056e-01, -4.585549533e-01, -6.675393581e-01, 3.146206737e-01, -4.155625105e-01, -2.612936199e-01, 2.257670909e-01, -2.601175547e+00, 1.546251122e-02, -1.816861331e-01, -1.495350957e+00, -7.784972340e-02, -6.471381187e-01, 1.387437731e-01, -1.050113142e-01, 8.215748072e-01, 2.681394517e-01, 8.647321165e-02, -1.601640731e-01, 9.436040372e-02, -8.228646517e-01, -1.919521540e-01, -1.532873809e-01, 5.273553133e-01, 6.189715862e-01, -2.495928556e-01, 2.728210986e-01, -2.079692036e-01, -4.445883036e-01, -6.284151971e-02, -3.212897852e-02, 1.656419635e-01, -7.920763493e-01, 2.218930960e+00, -1.242136836e+00, -8.812333643e-02}, {2.174069136e-01, -4.893295467e-01, -5.838762224e-02, 6.516228318e-01, 2.299846411e-01, -1.661166251e-01, -7.731094211e-02, -9.239816666e-02, 1.857866347e-01, -1.666241437e-01, 1.044647023e-01, -7.807153463e-01, -7.111743093e-01, -1.387975961e-01, 7.957122922e-01, 6.392561793e-01, 4.099046290e-01, 7.628890276e-01, 6.666694880e-01, -2.763686180e-01, 2.909035087e-01, 1.096369505e+00, -1.581836343e-01, -9.795489311e-01, -3.481040299e-01, -3.475259244e-02, -1.045377553e-02, -2.148952931e-01, 4.493658245e-01, -2.711830139e-01, 3.224062175e-02, -2.844876647e-01, -6.719975919e-02, -5.794971585e-01, -2.927963994e-02, -2.320287675e-01, 3.174181581e-01, 2.350226939e-01, 8.754669130e-02, -6.542490423e-02, -9.356212616e-01, 4.144939184e-01, 9.856673423e-04, -5.377099514e-01, -1.004083872e+00, -4.331758022e-01, -1.005135775e+00, 3.915845454e-01, -1.477683932e-01, -1.891936660e-01, -8.516535759e-01, -3.355787396e-01, -1.942808777e-01, -3.848483562e-01, 2.126186341e-02, -2.747522295e-01, 7.448293567e-01, 1.710929722e-01, 7.766249776e-02, 7.184886932e-01, -4.253116995e-02, 5.889983103e-02, 3.884072229e-02, -1.835215464e-02, -1.208236963e-01, -6.882172078e-02, 4.094541669e-01, -7.621283829e-02, -8.587653190e-02, -1.765154302e-01, 1.695223153e-01, -4.490330219e-01, -6.048301458e-01, -3.010178208e-01, -7.666765451e-01, 6.251277924e-01, 1.925080568e-01, 4.559790194e-01, 2.653412521e-01, 4.952950776e-01, 3.096309006e-01, 1.507149041e-01, 5.237755179e-01, -2.341878414e-01, -5.825391412e-01, 4.803385139e-01, 1.662674360e-02, -3.893443346e-01, -2.894546688e-01, -3.869559988e-02, 4.397258162e-01, -1.796232760e-01, 1.720615923e-01, -5.554467812e-02, -6.415488571e-02, -6.952518821e-01, 2.590251863e-01, 4.939965159e-02, -3.101123273e-01, -8.637057543e-01, 3.628487885e-01, 3.924489021e-01, -3.997948170e-01, -4.602163136e-01, 4.358420074e-01, -4.287641644e-01, -1.901930124e-01, 5.148060918e-01, -1.980740875e-01, 4.064972997e-01, -2.337630987e-01, -6.026564837e-01, 7.682656497e-02, 4.927090928e-02, -4.256070852e-01, -5.236702561e-01, 3.928884566e-01, 7.411228418e-01, -5.722827744e-03, -4.161797166e-01}, {-7.278902829e-02, -9.689419717e-02, -2.174135745e-01, 6.434368342e-02, 3.057279289e-01, -2.073462009e-01, -4.010511339e-01, 1.050970033e-01, 3.799534738e-01, -2.166162133e-01, -1.962478906e-01, 2.121610343e-01, 9.610898048e-02, 5.785191059e-01, -2.786042690e-01, 1.405662000e-01, 9.610066563e-02, 2.668245137e-01, 4.478338957e-01, -5.119817257e-01, 5.831136927e-02, 7.729136944e-01, -4.690079764e-02, -6.082141399e-01, 5.927396938e-02, 3.238753974e-01, 4.125183523e-01, -1.164704710e-01, -6.295361519e-01, -3.791889250e-01, 3.647297323e-01, 7.073115557e-02, -1.173491701e-01, -3.708092868e-01, -2.911538072e-02, -2.185772806e-01, 2.230498344e-01, 1.937803775e-01, -1.895125210e-01, -4.440117776e-01, 1.047577187e-01, 3.485111594e-01, -3.386711180e-01, -4.769038782e-02, -2.457451224e-01, -2.786409296e-02, -5.089891553e-01, 2.326273024e-01, 3.770596981e-01, -2.342056930e-01, -2.393419296e-01, 1.791712344e-01, 1.099607050e-01, 1.735964566e-01, 1.637933105e-01, 2.789288163e-01, 9.706769586e-01, 3.672925234e-01, -2.159029543e-01, 1.156346872e-01, -4.756435454e-01, 1.041534021e-01, -3.900393844e-01, -8.758291602e-02, -3.941838741e-01, -6.497810036e-02, 2.675456703e-01, -7.885987312e-02, 6.127214432e-01, 4.151183367e-02, 2.459741831e-01, 2.102775276e-01, -1.152663752e-01, -9.566239268e-02, 2.971967757e-01, -4.794555157e-02, 4.657700956e-01, -2.705955803e-01, 2.074259818e-01, 1.617957503e-01, 3.010862768e-01, 2.530552745e-01, -3.344896138e-01, -1.780023798e-02, 1.074602678e-01, 6.427401900e-01, -1.544332206e-01, -2.554790676e-01, 3.133191168e-01, 5.307906121e-02, -8.337707072e-02, -1.289548725e-01, 2.037863284e-01, 2.259450853e-01, -3.384926915e-01, -9.050760418e-02, -1.926530749e-01, 2.030578405e-01, -3.692009300e-02, -1.186797395e-01, 1.554024871e-02, 2.962050438e-01, -3.568768203e-01, -5.161898211e-02, -2.083240896e-01, 1.323232502e-01, -2.257324159e-01, 2.495441586e-01, 